tree
version=v2
num_class=1
num_tree_per_iteration=1
label_index=0
max_feature_idx=146
objective=binary sigmoid:1
feature_names=sample_Fs age sex mean_RR_0 mean_Peaks_0 median_RR_0 median_Peaks_0 std_RR_0 std_Peaks_0 var_RR_0 var_Peaks_0 skew_RR_0 skew_Peaks_0 kurt_RR_0 kurt_Peaks_0 mean_RR_1 mean_Peaks_1 median_RR_1 median_Peaks_1 std_RR_1 std_Peaks_1 var_RR_1 var_Peaks_1 skew_RR_1 skew_Peaks_1 kurt_RR_1 kurt_Peaks_1 mean_RR_2 mean_Peaks_2 median_RR_2 median_Peaks_2 std_RR_2 std_Peaks_2 var_RR_2 var_Peaks_2 skew_RR_2 skew_Peaks_2 kurt_RR_2 kurt_Peaks_2 mean_RR_3 mean_Peaks_3 median_RR_3 median_Peaks_3 std_RR_3 std_Peaks_3 var_RR_3 var_Peaks_3 skew_RR_3 skew_Peaks_3 kurt_RR_3 kurt_Peaks_3 mean_RR_4 mean_Peaks_4 median_RR_4 median_Peaks_4 std_RR_4 std_Peaks_4 var_RR_4 var_Peaks_4 skew_RR_4 skew_Peaks_4 kurt_RR_4 kurt_Peaks_4 mean_RR_5 mean_Peaks_5 median_RR_5 median_Peaks_5 std_RR_5 std_Peaks_5 var_RR_5 var_Peaks_5 skew_RR_5 skew_Peaks_5 kurt_RR_5 kurt_Peaks_5 mean_RR_6 mean_Peaks_6 median_RR_6 median_Peaks_6 std_RR_6 std_Peaks_6 var_RR_6 var_Peaks_6 skew_RR_6 skew_Peaks_6 kurt_RR_6 kurt_Peaks_6 mean_RR_7 mean_Peaks_7 median_RR_7 median_Peaks_7 std_RR_7 std_Peaks_7 var_RR_7 var_Peaks_7 skew_RR_7 skew_Peaks_7 kurt_RR_7 kurt_Peaks_7 mean_RR_8 mean_Peaks_8 median_RR_8 median_Peaks_8 std_RR_8 std_Peaks_8 var_RR_8 var_Peaks_8 skew_RR_8 skew_Peaks_8 kurt_RR_8 kurt_Peaks_8 mean_RR_9 mean_Peaks_9 median_RR_9 median_Peaks_9 std_RR_9 std_Peaks_9 var_RR_9 var_Peaks_9 skew_RR_9 skew_Peaks_9 kurt_RR_9 kurt_Peaks_9 mean_RR_10 mean_Peaks_10 median_RR_10 median_Peaks_10 std_RR_10 std_Peaks_10 var_RR_10 var_Peaks_10 skew_RR_10 skew_Peaks_10 kurt_RR_10 kurt_Peaks_10 mean_RR_11 mean_Peaks_11 median_RR_11 median_Peaks_11 std_RR_11 std_Peaks_11 var_RR_11 var_Peaks_11 skew_RR_11 skew_Peaks_11 kurt_RR_11 kurt_Peaks_11
feature_infos=none [2:104] [0:1] [3114.5714285714284:71741.715328467151] [13968.241944436491:310384539.44422483] [3136:70853] [2411.0587054926691:529265487.69428921] [1865.5323910457348:41369.941743323368] [3497.9136895325305:307193305.36693132] [3747919.6483516479:1717741208.3435736] [12955129.601737849:95093632453508864] [-0.50847464926101138:0.4400715434714188] [-6.0727930270782897:10.004377544695217] [-1.4913296046028892:-0.48328353155119386] [-1.9999557492781739:117.28048401620926] [3126.1428571428573:72007.26865671642] [8172.8762392038207:261234686.55888319] [2938:71951] [2775.113301147223:19173163.444533385] [1858.5818655685866:41566.584264710596] [4614.370838037059:332307280.96674562] [3720043.9780219775:1734252017.0511489] [21900773.037524737:1.1155494662620053e+17] [-0.82075827831443149:0.53452707001275623] [-6.601977336313368:9.6013754538058738] [-1.4559452715467265:-0.26554873096034015] [-1.9999861156353014:99.425910797744308] [3142.5714285714284:71986.959409594099] [3196.4492158334497:267195823.70722896] [3158:71678] [2456.8861947656533:36510896.114964731] [1857.9208700005697:41338.259272016025] [2427.6307524802864:266417899.54562914] [3717398.4175824178:1715180759.9353833] [6188060.6239074022:71449138734395480] [-0.62207308123729144:0.44428769861946121] [-6.1455197709793534:10.00029952639699] [-1.4879520945531288:-0.34838891414995876] [-1.9987929371460693:104.98005862441309] [3123.7142857142858:71990.943820224726] [24391.928386617812:290803092.81393766] [3137:72224] [2346.0548719048666:528251942.14662325] [1859.0448941236859:41587.936101970277] [6023.4276821179637:266281074.39871776] [3721897.7582417578:1736058521.0607417] [39580015.681859985:71216600103036048] [-0.58530936467806693:0.40464805375202806] [-6.4009419744288367:9.3326862413959368] [-1.4633767757876408:-0.33912978638861313] [-1.9999975699807471:85.400617372432308] [3122:71655.12915129152] [6079.2903073816415:290746114.92268205] [3134:71146] [1622.3169169623116:528458708.79979247] [1858.4855585741234:41416.222014359657] [959.84801600322976:266491069.18387571] [3719658.4615384615:1721656421.6684434] [1023675.7931392626:71326261650220728] [-0.6082537313739721:0.38020407502729753] [-7.4024965113782963:11.835506362436593] [-1.490675065684897:-0.30759289857868843] [-1.9999999999999998:144.01033181492647] [3131.1428571428573:72020.200743494424] [6870.4971600998233:255723720.67176509] [3145:72226] [1849.1456165954246:21688347.510474097] [1858.0304033012585:41489.661901529114] [2073.4178942658:266327827.89196101] [3717836.7472527479:1727815149.3476117] [4447305.2733740937:71430022556901056] [-0.60383647245970062:0.47057736831935293] [-6.7064528116594841:9.7013240492181509] [-1.4604478405354679:-0.30483296687310757] [-1.999880487133421:92.991397167934451] [3125.8571428571427:72103.360902255634] [15902.851371011424:313714979.76645994] [3143:72017] [3582.1568851702327:521180149.43531108] [1861.1144839716283:41791.484052086074] [8081.8419591789007:287031624.58661944] [3730189.2087912089:1753118811.4994469] [68753862.582257524:82877553236124704] [-0.43441017652402397:0.46344828336031457] [-7.2257866720709831:11.951080673419337] [-1.474428899838087:-0.51181587171829701] [-1.9999812355509874:157.00197351083796] [3136.1428571428573:72789.110320284701] [63882.18188243566:251518219.73219484] [3152:73328] [2559.7159584780038:153653766.3376694] [1859.0929377038708:41607.88707148761] [35258.451965342458:340667787.05169916] [3722090.1318681319:1737399181.7913575] [1312222792.4919372:1.1700580786531418e+17] [-0.50194834447812597:0.46995735828202795] [-7.2163344944316581:12.388717392716991] [-1.4604308131101835:-0.23708636645053449] [-1.9999160979732051:156.90614628172557] [3119.2857142857142:74470.503311258275] [72562.140767324294:264836014.49140474] [3130:76148] [5528.7442641702137:138335000.09552932] [1858.5144001352812:41360.45510126507] [18903.136107670663:285608689.83751869] [3719773.9120879122:1716370592.5166004] [382852022.89834541:82057873256600992] [-0.41287490061003324:0.37162355771193761] [-6.6840627434793785:10.607495947926379] [-2:-0.79839028721270866] [-2:116.21968827801419] [3117.1428571428573:73846.75] [64684.152684379093:363868154.39922673] [3134:73709] [6024.0536269764243:220472567.62846529] [1769.6079666286416:41687.379517650319] [24161.320187880159:355034948.63372022] [3355191.8095238092:1743892794.3623693] [616201026.17800224:1.2665005196445e+17] [-0.39498977190487944:0.9884887585546771] [-6.6940274278096421:8.6788769447775582] [-1.4916724043749452:0.99053449641931035] [-1.9993244899704918:86.003391248539913] [3125:73918.236486486479] [52499.777417911566:345588157.9846189] [3138:80786] [6292.1273618550349:228135830.0270443] [480.96846743488982:42213.549512841681] [15801.64874228271:411448536.20386863] [346996:1788864008.660291] [269964994.10054892:1.7008843519876051e+17] [-1.307248318298887:0.46920410102750032] [-5.4112650494236094:8.6423481112235887] [-1.4999999999999998:0.5669126665863482] [-1.9998790625416079:81.441010157747073] [2769.8000000000002:71356.805280528046] [59774.36085902535:382033422.54978341] [2865:72480] [2639.3587582968735:159051780.02567092] [515.57031528201856:44314.826731325251] [13420.590062920248:465179880.94322836] [354417:1972417043.0880256] [189117849.51880139:2.1744789393501149e+17] [-1.074148487332653:0.72415888152550267] [-6.1899749052747204:9.6793705647052253] [-1.5710778500275013:-0.095412679310308945] [-1.9998768941058824:96.113482217837074]
tree_sizes=2387 2418 2426 2442 2437 2441 2432 2444 2446 2456 2450 2442 2435 2446 2448 2457 2456 2459 2446 2460 2467 2442 2458 2461 2462 2442 2459 2463 2430 2454 2450 2454 2458 2457 2437 2465 2470 2469 2446 2472 2476 2470 2464 2461 2477 2456 2451 2470 2470 2471 2457 2475 2475 2501 2469 2487 2476 2474 2470 2463 2469 2459 2467 2480 2475 2483 2473 2482 2471 2468 2483 2481 2476

Tree=0
num_leaves=30
num_cat=0
split_feature=98 1 10 26 78 2 72 8 120 19 74 62 110 29 94 76 121 1 61 68 86 96 83 68 40 123 59 88 5
split_gain=122.354 82.4168 73.7841 56.4366 52.85 37.9866 33.8008 23.7698 40.2351 20.6427 22.0451 19.5246 16.0552 15.9783 15.6057 24.6442 14.9133 12.1385 11.9952 10.8048 20.4875 9.89094 10.5837 10.0011 16.76 13.9736 8.88195 8.41149 8.27487
threshold=-1.762586981250051 66.500000000000014 387303689252.96698 -1.694977998621459 41544.165714922936 1.0000000180025095e-35 0.084476126042872343 502901.1633567047 0.12638792157932724 2971.1108569331668 -1.6280290417878676 -1.5577997518383817 -1.9580418385831397 5833.5000000000009 9007379813524.041 1502463.4721766862 -1.2479294599172672 62.500000000000007 -1.3231313470942749 208143.71080551771 -1.6519845796385295 -3.3218146969742954 0.00084172792757179727 869730.15485902724 1183141.3742904428 5342.2539682539691 -0.064612740501312452 4656459.0030820062 6148.0000000000009
decision_type=8 2 2 2 8 2 2 2 10 2 2 2 8 2 10 8 10 2 2 2 10 10 10 2 2 10 2 10 2
left_child=1 5 9 6 -2 7 12 26 14 10 -3 16 -4 -5 -9 -16 -6 27 -19 20 -11 22 -20 -23 25 -25 -1 -13 -7
right_child=4 2 3 13 11 28 -8 8 -10 19 -12 17 -14 -15 15 -17 -18 18 21 -21 -22 23 -24 24 -26 -27 -28 -29 -30
leaf_value=-2.0878532935636844 -2.0264228431329778 -2.1060541160933157 -1.9431694388072691 -2.0268255161075399 -2.0745991494269509 -2.1365004210466938 -1.8722006926212309 -2.1496822279305103 -1.9693724087205311 -2.1580646221601385 -1.976932612274841 -2.1903494493682705 -2.0693540934004129 -2.1392858347436761 -1.9937489641972539 -2.1303506614501582 -2.1430006328894664 -2.0807936494640629 -2.0546136029827307 -2.1504975800322343 -2.0287701494115429 -2.1669437556559594 -2.1604536679414452 -2.1498696614455737 -2.1736416910397196 -2.0350946540851114 -2.1544085826784172 -2.1635427834615752 -2.1760877231467832
leaf_count=71 83 86 51 64 99 228 86 112 76 62 59 567 56 70 64 77 570 57 50 203 68 1110 50 50 114 64 210 683 361
internal_value=0 0.640999 1.44626 2.63719 -0.367334 0.100344 3.76345 0.669413 1.26297 0.631507 1.65612 -0.429703 2.54232 1.01488 0.639285 1.35944 0.0687086 -0.551173 -0.353328 0.185317 0.917653 -0.411355 0.575649 -0.485126 0.135539 1.01764 -0.0255575 -0.787792 -0.489017
internal_count=5501 2004 805 327 3497 1199 193 610 329 478 145 3414 107 134 253 141 669 2745 1495 333 130 1438 100 1338 228 114 281 1250 589
shrinkage=1


Tree=1
num_leaves=30
num_cat=0
split_feature=98 1 10 78 26 2 11 64 94 8 97 102 86 86 88 86 19 68 126 95 18 1 73 37 54 86 138 60 35
split_gain=108.608 67.6359 54.6014 45.0792 37.519 33.7707 27.1596 19.756 25.4973 26.288 21.4287 22.7418 19.1725 18.4129 19.9288 17.4026 26.1551 17.0298 15.8265 15.5958 13.557 10.0668 12.9805 10.9949 9.8979 12.53 9.43945 9.41385 9.54768
threshold=-1.762586981250051 66.500000000000014 387303689252.96698 41544.165714922936 -1.694977998621459 1.0000000180025095e-35 -0.017340592125236916 1357007.8236990275 6631983264583.9346 502901.1633567047 -1.1949766008751079 1123168.1902489958 -1.5995665893777715 -1.2100825144891949 8534348.3245687038 -1.8862294131878223 2971.1108569331668 208143.71080551771 3707350.6792432121 0.017068980912874412 864467.82407153479 68.500000000000014 -1.2420255671713414 -1.1687991144185002 1293750.3486289461 4.1817993948464336 3742501.8056520713 -0.21178240191490885 0.0065351704666996814
decision_type=8 2 2 8 2 2 2 2 10 2 10 8 10 8 10 10 2 2 8 10 2 2 2 2 2 10 8 2 2
left_child=1 5 15 -2 6 7 -4 8 -1 -10 11 -11 -8 14 21 -3 18 -18 -17 26 -6 -5 -23 -24 -15 27 -16 28 -26
right_child=3 2 4 13 20 -7 12 -9 9 10 -12 -13 -14 24 19 16 17 -19 -20 -21 -22 22 23 -25 25 -27 -28 -29 -30
leaf_value=2.9469303714388158e-05 0.095619163520293995 -0.022671861545893093 0.22691533421105048 -0.027256537311399737 -0.017301477984031699 -0.023699368983317932 0.059145529418001122 -0.026666365480290458 0.011583289274247741 0.15506689827408357 0.19247337409673942 0.018387385712968021 0.18162221738744128 -0.032433838519761872 0.1379608663036764 0.17576441565078485 0.071304276694581017 -0.014907336876620528 0.051527373216754484 -0.013739166287943744 0.086685619708261052 0.063136030609669352 -0.036872803738786722 0.04502968561724674 0.073827936538467254 -0.046634444917319606 0.039016336311087536 -0.032341691115587476 -0.0047312387802263319
leaf_count=197 83 126 72 471 52 589 71 125 110 50 55 73 50 2128 52 51 94 157 50 63 82 89 141 63 95 118 51 69 74
internal_value=0 0.589899 1.29073 -0.354649 2.24752 0.0934601 3.07437 0.616443 0.906594 1.50176 2.22703 1.49974 2.19478 -0.415705 -0.0235242 0.582736 0.945257 0.375305 2.28241 1.00116 0.923739 -0.247305 0.226543 -0.228472 -0.563751 -0.0575094 1.78575 0.375353 0.791487
internal_count=5501 2004 805 3497 327 1199 193 610 485 288 178 123 121 3414 930 478 352 251 101 166 134 764 293 204 2484 356 103 238 169
shrinkage=0.05


Tree=2
num_leaves=30
num_cat=0
split_feature=98 1 10 78 26 26 130 64 31 146 84 132 132 70 86 86 102 61 90 61 18 100 108 86 74 42 84 1 49
split_gain=97.0578 60.3671 46.3923 43.8523 36.2917 31.011 25.9259 25.3361 22.321 21.0754 26.2525 19.1711 17.8465 17.5533 21.3832 16.0605 15.5767 15.9892 13.732 11.4442 11.3685 19.4685 10.578 11.5637 13.7536 14.3733 10.4225 10.1731 11.278
threshold=-1.5954009528871607 66.500000000000014 619720439127.5144 36667.713760244842 -1.694977998621459 -1.8622785145719252 11262097247956.697 1357007.8236990275 2866.6630113155588 -1.9740916151967272 -0.027331089024713495 0.073922831424782343 0.082823753481348641 60749146907.023056 -1.8862294131878223 -1.5889633322664749 1975085.0235465367 -1.2106703350358017 11891962.416518621 -1.3325389798737122 656197.40809395083 3759490.9816441466 -2.4615337245083126 -0.59538703786246716 -0.35001236383236994 715199.94096949452 -0.56161640082076014 50.500000000000007 -1.2002998972872481
decision_type=8 2 2 8 2 2 10 2 2 10 8 10 10 2 10 8 10 2 8 2 2 8 8 10 2 2 10 2 2
left_child=1 5 8 -2 11 6 27 9 -3 -8 12 -4 -11 14 -10 18 -16 -18 -5 -17 21 -7 23 -21 25 -25 -6 -1 -29
right_child=3 2 4 15 26 20 7 -9 13 10 -12 -13 -14 -15 16 19 17 -19 -20 22 -22 -23 -24 24 -26 -27 -28 28 -30
leaf_value=-0.031926161893402583 0.11223181693128284 0.099127376060952427 0.10123483519266968 -0.0039714748002548667 0.088058867019358084 -0.032610928680787424 0.013261528077691043 -0.025022192919732414 -0.033094770102167756 0.22662649960901127 0.040307115498772972 0.19997227297371231 0.097479853933449948 -0.008864345930861486 0.12034985039749664 0.050001324545959402 0.084083622218988505 -0.029366909240493528 0.08481912860791703 0.046453310038500548 -0.038375279249656197 0.075429429298041084 -0.033688845816313699 0.095120330503442319 -0.038364974902378161 -0.022140850515231677 -0.0057244606548334451 0.062991524317693739 -0.029264259979728771
leaf_count=204 56 95 96 383 51 114 97 87 68 50 88 72 56 308 85 50 65 55 50 90 460 68 2133 51 288 66 69 85 61
internal_value=0 0.482597 1.0675 -0.387264 2.05767 0.0335321 0.488897 1.06092 0.5981 1.49901 2.08962 2.88431 3.13545 0.360002 0.925413 -0.44466 1.40388 0.686007 0.137307 -0.541801 -0.490269 0.187923 -0.572288 -0.135703 -0.376872 0.582558 0.689976 -0.162759 0.494883
internal_count=5501 2334 964 3167 288 1370 728 378 676 291 194 168 106 581 273 3111 205 120 433 2678 642 182 2628 495 405 117 120 350 146
shrinkage=0.05


Tree=3
num_leaves=30
num_cat=0
split_feature=98 1 78 78 10 91 26 56 92 62 12 45 54 2 33 131 2 64 94 107 61 100 102 104 145 26 95 86 38
split_gain=87.3071 49.8502 44.1305 34.5301 28.9471 22.2023 22.8653 19.6628 16.7387 16.3046 19.3874 16.2853 15.1376 14.1184 13.8211 15.3206 11.8386 15.4732 17.1891 19.9682 9.97501 8.25846 14.5385 9.57792 8.12289 10.0283 10.388 7.73716 11.5531
threshold=-1.762586981250051 59.500000000000007 32038.578849699206 52536.799102648838 387303689252.96698 2916.0178027280031 -1.694977998621459 197195.71648679025 2446929.6013613767 -1.3482750321661736 -0.95724257591475037 8681685.584962409 499138.20774027338 1.0000000180025095e-35 8491299.9111471865 0.080683358916784229 1.0000000180025095e-35 1074696.3087943115 6631983264583.9346 0.0061374290955520262 -1.3231313470942749 4086255.3953453815 4766528.7330353074 1232389.8052362076 -1.1669784272296784 -1.8679310369682389 0.0077380219055172761 -0.46474980466955812 -0.57066252652875338
decision_type=8 2 10 8 2 10 2 2 10 2 2 2 2 2 2 10 2 2 10 10 2 10 10 10 8 2 10 8 2
left_child=1 11 -3 7 14 -6 8 -2 -7 10 -5 -1 -10 -8 -4 24 17 18 -13 -20 -11 -12 -23 -24 25 26 -16 28 -22
right_child=3 2 4 9 5 6 13 -9 12 20 21 16 -14 -15 15 -17 -18 -19 19 -21 27 22 23 -25 -26 -27 -28 -29 -30
leaf_value=0.076929201931210944 0.0032508004255964677 0.15179616177078684 0.08643482581241195 0.072087790658033016 0.13589042859099229 0.031306351313961041 0.047237373636208085 0.13397611952797683 0.062271280834884923 0.03321378005465913 -0.026263851420415915 -0.025638691080336718 0.16243367111574525 -0.043723205180964682 0.068790035376064998 0.068126930571179786 -0.031314247412820413 -0.045637806722337269 0.0086616420141359587 0.11435674975589337 -0.037140637474567285 0.07925485416473152 0.059698693293786353 -0.016922483761962565 -0.042710162622100228 -0.016814216432693402 -0.014931268029182205 -0.036190210619052136 0.00016070374426460291
leaf_count=57 52 79 54 89 76 93 89 50 59 69 386 103 61 82 99 83 415 105 93 75 424 62 52 304 112 208 61 1503 506
internal_value=0 0.50871 0.911231 -0.33154 0.741219 1.29079 0.990887 1.3691 1.58681 -0.395536 -0.0164783 -0.102427 2.26386 0.0959787 0.275606 0.120293 -0.225748 0.169143 0.548591 1.12896 -0.536213 -0.17712 0.14106 -0.117402 -0.102607 0.127765 0.729586 -0.573472 -0.335509
internal_count=5501 2004 1156 3497 1077 460 384 102 213 3395 893 848 120 171 617 563 791 376 271 168 2502 804 418 356 480 368 160 2433 930
shrinkage=0.05


Tree=4
num_leaves=30
num_cat=0
split_feature=98 1 78 10 26 126 98 129 130 64 146 84 54 86 88 107 80 25 61 84 54 133 59 92 18 100 73 121 121
split_gain=78.5518 45.6807 33.5669 32.1259 27.2024 21.4545 21.0693 27.6667 20.9092 19.5543 15.3852 18.3971 14.8795 14.7533 16.2565 14.8983 12.8527 12.7035 12.5204 12.0021 11.4202 11.1495 11.0682 11.0652 10.2462 16.099 10.016 9.33401 9.06961
threshold=-1.5954009528871607 66.500000000000014 36667.713760244842 387303689252.96698 -1.8622785145719252 2842659.5496044951 -1.850865669893081 9369587.9360853117 11262097247956.697 1357007.8236990275 -1.9740916151967272 -0.027331089024713495 270697.14008328249 -1.2100825144891949 8534348.3245687038 0.0055618233877725029 610480.94354402635 -1.2278134759204511 -1.2161669895041152 -0.21939656944359068 1684516.2008870726 -1.1871080630941004 0.047048756994755227 3060769.1014982867 656197.40809395083 3759490.9816441466 -1.1838986240205454 -1.2248741828526812 -1.2291551882062484
decision_type=8 2 8 2 2 10 8 10 10 2 10 8 2 8 10 10 10 2 2 8 2 10 2 10 2 8 2 10 10
left_child=1 4 -2 16 8 12 7 -7 27 10 -10 23 -5 14 28 -16 17 -3 -9 -19 -15 -22 -18 -12 25 -6 -21 -1 -4
right_child=2 3 13 5 24 6 -8 18 9 -11 11 -13 -14 20 15 -17 22 19 -20 26 21 -23 -24 -25 -26 -27 -28 -29 -30
leaf_value=0.046532946719321455 0.089302656164106001 -0.0077327713341083897 0.020771129904340123 0.077768910259675417 -0.032065612685544025 0.15844035123198097 -0.023028599317653387 0.088930841792364712 0.011427330757213718 -0.023927208525680074 0.075607604598549538 0.034330512569606911 0.17210140964514312 -0.031513947523961403 0.093988368786916077 -0.006698777345275503 -0.019318210980298574 0.10916770909483926 0.00075553668416466872 0.075812303422193361 -0.013725683610190565 0.072499588505683416 0.048798244903424479 0.17048455126870188 -0.037547908489255773 0.064153165321392536 -0.018700874776609464 -0.02114104124713892 -0.025369213538361909
leaf_count=67 56 79 153 69 114 51 69 57 97 87 51 88 58 2132 76 73 232 83 79 56 162 56 80 55 460 68 51 283 459
internal_value=0 0.418469 -0.362068 0.903662 0.0223865 1.51741 1.01847 1.48407 0.437934 0.92924 1.28389 1.74991 2.4242 -0.417523 -0.0228191 0.911914 0.413697 0.899224 0.778273 1.3232 -0.553599 0.175515 -0.0318863 2.54727 -0.477814 0.15384 0.634881 -0.157416 -0.269776
internal_count=5501 2334 3167 964 1370 383 256 187 728 378 291 194 127 3111 761 149 581 269 136 190 2350 218 312 106 642 182 107 350 612
shrinkage=0.05


Tree=5
num_leaves=30
num_cat=0
split_feature=98 2 10 114 127 78 22 40 109 1 94 131 98 36 85 86 42 145 108 74 1 86 104 26 81 40 11 136 85
split_gain=70.6603 41.4866 29.6069 33.1668 29.5373 29.2475 21.4839 20.3498 17.6293 16.8172 16.2284 14.6329 14.2056 14.0678 15.2973 14.0018 12.7804 12.1955 11.2609 14.1534 20.6544 12.5241 11.0179 10.3934 14.701 11.6223 10.2304 9.51589 12.8016
threshold=-1.5954009528871607 1.0000000180025095e-35 295372542877.94867 513704.13988437585 2995.6579888896413 36667.713760244842 124528360542.57777 1619152.6154412248 -1.2151427064592017 68.500000000000014 1170951701619.9695 -0.011425987753874703 -1.8794501264136583 0.25230193239265114 -1.1943375577956381 -1.5889633322664749 48820.278924531405 -1.2075624228424136 -2.4615337245083126 -0.32189425494378304 62.500000000000007 -0.49100349512327351 4695380.5205034586 -1.7832703930021554 15052968.071116058 596486.22084944532 0.18346202253614521 2009855.6467302321 -1.2218206272746295
decision_type=8 2 2 10 10 8 2 2 8 2 10 10 10 2 10 8 2 8 8 2 2 10 10 2 10 2 2 10 8
left_child=1 2 6 8 9 -2 10 12 -4 -3 -1 -12 13 14 17 16 -7 -5 19 20 -17 -21 -11 24 25 -6 -20 28 -8
right_child=5 4 3 7 23 15 27 -9 -10 22 11 -13 -14 -15 -16 18 -18 -19 26 21 -22 -23 -24 -25 -26 -27 -28 -29 -30
leaf_value=-0.019410388429859239 0.07963600023772896 -0.0035705240633518384 0.16846191157006449 0.11020970755053433 -0.016339853748756138 0.080830696243031103 0.078516312646325581 -0.03321189088310595 0.076156834375801938 0.034617725757764096 0.019031875602471677 0.11809378743254398 0.0047076992363384272 0.0082227273002962696 0.14914770712201714 -0.014504238751844296 -0.0037656912400544015 0.016277491367787764 -0.032258729745619628 0.046163987396053721 0.10330574471235228 -0.038284504274670568 0.11965200122848452 -0.040292351995324709 -0.026448724451739531 0.073146778761679798 0.043657504890434698 -0.022940926381744456 -0.0085742001622571822
leaf_count=54 56 130 66 52 62 53 66 84 106 68 60 90 104 57 57 95 380 65 2118 57 72 283 56 392 270 80 53 297 118
internal_value=0 0.390378 0.74963 1.20759 -0.0885992 -0.349608 0.280358 0.739892 2.22473 0.796252 1.11273 1.6203 1.04331 1.42437 1.8228 -0.403842 0.137572 1.20337 -0.49959 -0.0465304 0.738405 -0.453746 1.49759 -0.411644 -0.0633373 0.722226 -0.607886 -0.0989567 0.466729
internal_count=5501 2334 1276 591 1058 3167 685 419 172 254 204 150 335 231 174 3111 433 117 2678 507 167 340 124 804 412 142 2171 481 184
shrinkage=0.05


Tree=6
num_leaves=30
num_cat=0
split_feature=98 1 78 56 26 26 77 128 84 30 78 43 133 86 88 110 134 31 97 54 35 107 54 86 60 109 62 6 68
split_gain=63.6245 36.3185 25.6705 24.0879 23.1649 18.704 18.1246 16.8056 14.4559 14.2576 14.0301 13.3364 13.3398 13.2427 14.349 13.1349 19.3018 12.3617 12.7422 16.0782 18.6933 12.1003 11.1097 12.4046 10.5016 10.4398 10.1649 9.79902 9.28549
threshold=-1.5954009528871607 66.500000000000014 36667.713760244842 404504.81872685259 -1.8622785145719252 -1.5237144501706457 5420.5000000000009 2978412.015652304 -0.18657611096447804 373496.14421434584 633606.23960559827 2901.855333982428 -1.2003636291491666 -1.2100825144891949 8534348.3245687038 -1.9495079650044096 -1.9644423739621484 2866.6630113155588 -1.1994074193737858 18633.748664281007 -0.015459452522492749 0.0055618233877725029 1293750.3486289461 4.1817993948464336 -0.21178240191490885 -1.2194509829046061 -0.20864116799474128 54412.057053190045 35833.424507193391
decision_type=8 2 8 2 2 2 8 10 10 2 10 2 10 8 10 10 8 2 10 2 2 10 2 10 2 8 2 2 2
left_child=1 4 -2 9 7 8 -7 -1 -5 17 -10 -9 15 14 -4 16 -13 -3 19 -19 -21 -16 28 24 26 -11 -24 -6 -15
right_child=2 3 13 5 27 6 -8 11 10 25 -12 12 -14 22 21 -17 -18 18 -20 20 -22 -23 23 -25 -26 -27 -28 -29 -30
leaf_value=-0.01137122561061172 0.071637066748284281 0.096196611021346662 -0.012772810511682437 0.1399998050173519 0.026734461254427744 0.085896781167998426 -0.029677347044678205 0.10696234295116824 0.1048717708555558 -0.05675649967344161 0.0085086116433191958 0.01859038378603475 -0.0089609475730872291 0.018749681803802421 0.083425977605767976 0.010552832009034386 0.14102512595845046 -0.018643591250840818 -0.0087751386509085458 0.014470333107134088 0.11811903579887231 -0.0061173492627815337 0.10399652629845019 -0.044698296437150349 -0.036123694171741799 0.012915163881900458 0.016312650412829414 -0.031617540088662785 -0.034031333047287109
leaf_count=305 56 59 612 72 87 52 74 52 61 76 50 59 149 105 76 105 58 57 139 68 89 73 54 115 63 167 108 555 1905
internal_value=0 0.364618 -0.337504 0.782116 0.00844819 1.40718 0.459501 0.38086 1.90285 0.439372 1.28638 0.755884 0.544323 -0.390488 -0.0174171 1.01073 1.69412 0.765073 0.5388 0.991021 1.47905 0.842951 -0.524069 0.0401859 0.488574 -0.163414 0.921901 -0.463488 -0.624693
internal_count=5501 2334 3167 964 1370 309 126 728 183 655 111 423 371 3111 761 222 117 412 353 214 157 149 2350 340 225 243 162 642 2010
shrinkage=0.05


Tree=7
num_leaves=30
num_cat=0
split_feature=14 1 78 10 110 126 54 84 112 40 95 36 1 96 109 12 24 98 30 136 30 98 112 14 13 71 108 33 81
split_gain=57.8739 52.3321 38.4777 20.6478 20.0151 17.3625 15.1249 14.5228 14.0312 16.7378 13.9355 13.7334 13.1098 13.1177 11.6822 11.3048 11.1707 10.598 15.7662 10.1333 15.9624 10.9346 11.4769 8.72533 10.0037 8.71716 8.6502 8.52144 10.102
threshold=-1.6988027642248513 49.500000000000007 29155.755011882833 303297921755.3653 -1.9542373411460325 68132.274184846858 19751.001354882032 0.084898481987635624 4488178.0700170351 730077.40918274841 0.036146108425841997 0.032843424447356516 62.500000000000007 -3.3218146969742954 -1.1230523488425492 0.06134554683665553 -0.39249978120363671 -1.8832405693264114 544114.49293357495 3422700.3854774856 2192249.7638561958 -0.27268639004432343 8776356.1266105603 -1.9483985193162561 -1.1900360601706292 1.0000000180025095e-35 -2.7600664357172717 8618883.6581968758 9745167.5515151527
decision_type=2 2 10 2 8 10 2 10 10 2 10 2 2 10 8 2 2 10 2 10 2 10 8 2 2 2 10 2 10
left_child=1 8 6 14 11 -5 -3 10 -1 -10 16 -2 -6 -14 27 -9 25 23 -19 20 21 22 -15 -18 -25 -7 -23 -4 -29
right_child=4 2 3 5 12 7 -8 15 9 -11 -12 -13 13 19 -16 -17 17 18 -20 -21 -22 26 -24 24 -26 -27 -28 28 -30
leaf_value=-0.042429415660594549 -0.00092691226379830048 0.05459247018572292 0.050742030399586573 0.10957929742619306 -0.033704039317542851 0.057314313562410693 0.15796977204439927 0.033387951617414945 0.065344908558419332 -0.017369359404234595 -0.0092906324591557551 0.079771919191200524 0.04947805072831693 -0.0040311894359328013 0.075396292006222887 -0.04671588050589686 0.046242210060698619 -0.021618300185874462 0.082892476535014831 -0.027384858228966871 0.08192156175433285 0.029000372985466007 0.066415742555377105 0.1358381464216161 0.059377921345356459 -0.019208695930647623 -0.045743224727557277 -0.048220496261122653 0.0028889881456584344
leaf_count=399 144 50 60 62 1258 70 51 82 80 263 99 79 98 282 55 82 71 67 72 819 58 54 77 79 52 80 255 127 476
internal_value=0 0.347378 0.63317 0.494828 -0.322931 0.803185 2.20879 0.668527 -0.40412 0.0661095 0.880825 0.577699 -0.40426 -0.21039 0.0822076 -0.139442 1.07568 1.34124 0.648666 -0.285348 -0.00395361 -0.150701 0.215268 1.7078 2.11611 0.333658 -0.642137 -0.0358459 -0.162367
internal_count=5501 2377 1635 1534 3124 816 101 754 742 343 590 223 2901 1643 718 164 491 341 139 1545 726 668 359 202 131 150 309 663 603
shrinkage=0.05


Tree=8
num_leaves=30
num_cat=0
split_feature=98 2 127 126 78 68 94 114 6 59 98 86 70 120 128 124 1 24 30 8 14 42 52 138 26 81 38 13 108
split_gain=52.5927 33.177 24.0927 23.0355 21.1839 14.6201 17.1427 17.219 20.9613 15.2898 14.6925 12.2538 13.4174 12.5423 16.3677 11.8845 11.7951 11.2837 11.2693 10.6077 10.3671 9.93449 9.81376 9.12429 8.98388 11.9958 10.262 8.85477 8.68468
threshold=-1.5954009528871607 1.0000000180025095e-35 2995.6579888896413 57448.494087306848 57152.398933972683 1253412.0869535727 1091107172355.9911 6067391.3362239143 390958.99584855197 -0.053827221757483314 -1.8794501264136583 -1.0000000180025095e-35 1157071243.0685875 -2.8010256743956923 2209112.6180887255 3255414.1653480264 64.500000000000014 0.0077309048920068645 362615.79925580858 736052.57909285126 7.4253957498323997 48820.278924531405 293726.63882189401 2790563.1204552888 -1.7832703930021554 15052968.071116058 -1.6605245064387668 -1.2067133828985033 -2.6977944666934759
decision_type=8 2 10 10 8 2 10 10 2 2 8 8 2 10 10 10 2 2 2 2 2 2 2 10 2 10 2 2 10
left_child=1 3 16 -1 -2 6 -5 8 9 -8 27 13 -13 14 -6 -11 -3 18 -9 -18 21 -15 -17 -19 25 26 -4 -10 -23
right_child=4 2 24 5 11 -7 7 17 10 15 -12 12 -14 20 -16 22 19 23 -20 -21 -22 28 -24 -25 -26 -27 -28 -29 -30
leaf_value=0.11409877833860677 0.049603605892687169 -0.010972869894001896 -0.012436097156735014 -0.011877330746148706 -0.012208684013300868 -0.021228016035550055 0.084396459704103713 0.036670300556527924 0.15155321511274944 -0.028286660383971103 0.022373910337077127 0.047176740740937417 -0.033649148555052015 0.044317347244140937 0.113276812067858 0.076121696828928692 0.022094814553166905 0.0095713267878019051 -0.028092554976904945 0.096633378018813706 0.054564155991643465 0.027584261991710209 0.00016713839216236448 0.090963055774002918 -0.039401371416817536 -0.026255847034921662 0.067906535724154338 0.082298884334857547 -0.023745596394029341
leaf_count=59 89 108 70 177 66 148 87 98 65 98 51 63 1491 67 50 74 88 55 167 58 64 97 59 61 392 270 72 77 1180
internal_value=0 0.322906 -0.107739 0.632104 -0.316022 0.535829 0.646915 0.80471 1.13848 0.676678 1.86765 -0.376728 -0.602769 -0.164082 0.884224 0.279987 0.66192 0.309758 -0.0533308 1.11947 -0.25516 -0.318864 0.793248 1.05001 -0.408347 -0.0923681 0.585832 2.29628 -0.390289
internal_count=5501 2334 1058 1276 3167 1217 1069 892 511 318 193 3078 1554 1524 116 231 254 381 265 146 1408 1344 133 116 804 412 142 142 1277
shrinkage=0.05


Tree=9
num_leaves=30
num_cat=0
split_feature=14 1 78 110 21 10 112 40 126 1 98 52 96 23 36 145 30 47 140 134 84 136 30 98 112 121 96 143 37
split_gain=48.3938 43.5924 28.822 17.4932 16.8392 16.8276 13.0614 14.2467 12.4833 12.4354 12.0823 12.536 11.9041 11.6883 10.8563 10.7831 15.9395 10.5908 12.8886 14.7329 16.6792 9.34603 13.8151 9.80243 9.90903 9.33213 8.78993 8.27596 10.8463
threshold=-1.6988027642248513 49.500000000000007 29155.755011882833 -1.9542373411460325 8351825.8034859886 303297921755.3653 4488178.0700170351 730077.40918274841 68132.274184846858 62.500000000000007 -1.8832405693264114 620837.05456235853 -3.3218146969742954 0.0070665090662713924 0.032843424447356516 -1.2390266253823121 193518.48483644126 0.02368773879488472 4504968.2922630487 -1.9592202504390845 -0.16251951065085934 3422700.3854774856 2192249.7638561958 -0.27268639004432343 8776356.1266105603 -1.2080151603919262 -0.73616086951816251 0.0032275566285820123 -1.182603445935303
decision_type=2 2 10 8 2 2 10 2 10 2 10 2 10 2 2 10 2 2 10 8 10 10 2 10 8 8 10 10 2
left_child=1 6 13 14 -4 15 -1 -8 -7 -5 17 26 -11 -3 -2 16 -6 18 19 -10 -21 22 23 24 -14 -13 -12 28 -17
right_child=3 2 4 9 5 8 7 -9 10 12 11 25 21 -15 -16 27 -18 -19 -20 20 -22 -23 -24 -25 -26 -27 -28 -29 -30
leaf_value=-0.041588403175489452 -0.0008368619638723804 0.13525306198908205 0.088109683072239667 -0.032588670990343946 0.10845399250113329 0.08826115958474981 0.058228320597847084 -0.016729226357539508 -0.028085711412927053 0.046735481965658805 0.035686311350509994 0.066692989532303334 -0.0039571769469970743 0.048729172135827344 0.069387920582001342 -0.013846939293446731 -0.0096378272759746562 0.0042357993207125097 0.1063890580901396 0.10353883900416368 0.0091329630658483103 -0.026236565044958207 0.074343252600133372 -0.03092955256225597 0.060336124407747473 -0.0084665380980519685 -0.045853726519374222 -0.031954484154446738 0.050287459061817565
leaf_count=399 144 50 75 1258 50 61 80 263 51 98 50 91 282 51 79 210 68 108 68 70 70 819 58 309 77 74 134 253 101
internal_value=0 0.31038 0.562277 -0.303271 0.440395 0.36387 -0.38802 0.0601079 0.641433 -0.382248 0.519983 0.0701569 -0.192979 1.86085 0.526376 -0.0213679 0.854888 0.845364 1.13604 0.761003 1.20388 -0.266689 0.0027496 -0.138801 0.201503 0.688211 -0.515193 -0.208087 0.145343
internal_count=5501 2377 1635 3124 1534 1459 742 343 777 2901 716 349 1643 101 223 682 118 367 259 191 140 1545 726 668 359 165 184 564 311
shrinkage=0.05


Tree=10
num_leaves=30
num_cat=0
split_feature=26 1 10 61 78 58 47 85 107 1 138 32 113 23 60 30 120 98 88 106 88 122 88 96 6 90 68 128 89
split_gain=44.0642 31.4567 30.773 18.8341 15.5259 15.4349 12.1253 12.649 19.7891 11.8597 11.7436 12.5903 12.5788 12.4722 11.6338 12.793 12.8343 10.5736 12.0312 26.0593 15.6735 11.2985 9.54296 9.31699 9.1295 8.87543 11.4738 8.85761 12.0896
threshold=-1.694977998621459 38.500000000000007 310557219481.8454 -1.3231313470942749 57152.398933972683 71260874592.266678 0.049808853393991569 -1.1342272636238904 -0.0018784765210875852 64.500000000000014 48434.252801682145 87763.196893262546 10155.500000000002 -0.076454536258178732 0.33950298192790768 92701.239961455853 -0.33211708726749389 -0.65641200128836463 1102648.9819191569 973489291902.08423 1812002.8846459331 -1.9701664613272769 3512127.7713157111 -3.3218146969742954 37789.045464696443 15594163.783572761 386085.34299500502 7457281.2761288444 5134.5000000000009
decision_type=2 2 2 2 8 2 2 10 10 2 8 2 10 2 2 2 10 10 10 10 10 10 10 10 2 10 2 10 10
left_child=1 24 6 5 -5 -2 7 14 -9 25 -4 -12 13 -13 15 -3 -17 18 -11 -20 -21 -22 -14 -19 -1 -6 -27 28 -15
right_child=3 2 10 4 9 -7 -8 8 -10 17 11 12 22 27 -16 16 -18 23 19 20 21 -23 -24 -25 -26 26 -28 -29 -30
leaf_value=0.03817875373248461 -0.0067231882251177488 0.063829504077673044 0.088785134488536352 0.043617583090186152 -0.033920045582700557 0.10781050472333947 -0.035520184965715289 -0.014449726717906406 0.12107771746651944 -0.046149601073436138 -0.024949655108060242 0.0031973099417711738 -0.049649034742954262 0.0076999945767233548 -0.034193965192759537 0.067589628107626337 -0.01268930219385463 0.027392648709940196 0.10923858852850435 0.064551459141612991 0.058010012016707482 -0.017571489222871991 0.040124168111928586 -0.028624283534520636 -0.036280465936747303 0.059899591788442175 -0.033813848084349958 0.091884544176178404 0.067947476077129101
leaf_count=50 65 100 84 82 1425 51 166 51 57 106 66 88 54 100 157 62 304 92 68 82 51 451 50 799 366 73 88 120 193
internal_value=0 0.327956 0.493631 -0.263493 -0.315576 0.975322 0.0654867 0.242732 1.23275 -0.362233 0.880707 0.746143 0.865412 1.03682 0.0647175 0.320169 0.0252726 -0.166738 0.101146 0.262312 0.0470811 -0.17537 -0.0831065 -0.440368 -0.528885 -0.587307 0.190338 1.23247 0.964146
internal_count=5501 2068 1652 3433 3317 116 897 731 108 3235 755 671 605 501 623 466 366 1649 758 652 584 502 104 891 416 1586 161 413 293
shrinkage=0.05


Tree=11
num_leaves=30
num_cat=0
split_feature=14 1 78 19 10 112 30 61 135 109 85 28 46 136 1 122 114 23 140 73 97 12 62 116 11 66 109 120 66
split_gain=40.598 35.0452 24.4088 19.0725 22.2628 14.2681 16.1047 13.6196 12.9417 13.7627 13.6816 15.7588 12.1028 11.9834 11.4513 11.8926 19.4203 11.3019 10.9059 10.5302 16.9006 19.3034 32.7475 10.6718 10.2961 9.8517 11.4048 9.22022 9.02676
threshold=-1.4650097305930483 49.500000000000007 32038.578849699206 2808.8650972010751 303297921755.3653 4488178.0700170351 357566.30361436581 -1.1775683276417388 16369.755050505051 -1.1886602104656483 -1.231832018992014 1533079.2737701021 814918942098.07727 2138565.1987190321 64.500000000000014 -1.8917320194739518 4684169.8590715192 -0.00068773343791310774 3434903.1869686502 -1.2020460943325995 -1.219577662708677 -1.1810816310835419 0.61564606505333785 1071513.2065959082 0.0074311814793301106 478576.81511611294 -1.1280663650824894 0.10806322347426696 316677.47791994142
decision_type=2 2 8 2 2 10 2 2 8 10 10 2 2 10 2 10 8 2 10 2 10 2 2 10 2 2 8 10 2
left_child=1 5 17 -4 25 -1 7 -7 9 10 13 12 27 -6 -2 16 -16 -3 -15 20 -17 22 -22 -23 -14 26 28 -12 -5
right_child=14 2 3 4 8 6 -8 -9 -10 -11 11 -13 24 18 15 19 -18 -19 -20 -21 21 23 -24 -25 -26 -27 -28 -29 -30
leaf_value=-0.040064180014869138 -0.030157491725342864 0.11128651053453252 0.083305828435056239 -0.011379654880054768 0.13038020274780929 0.0053786132704260522 -0.022058584499484321 0.10380190110921705 -0.036753088988109729 -0.00013717192219571549 -0.018194740298937667 0.10307707947395842 0.084126044313027837 0.0051783788656419392 0.094313358910626491 -0.032118649499156555 -0.019129132993223438 0.03633517393361841 0.090516891886658957 -0.031109832011963236 0.14913165144597282 0.055320790810922685 0.0033208193162187305 -0.028421373327617641 0.0082430378368379478 -0.026367025926429217 0.078529488520075685 0.045135580058164149 0.0451907979407844
leaf_count=471 1212 61 80 359 52 89 272 53 71 213 184 52 84 60 63 294 81 65 58 539 71 56 108 194 62 397 50 61 89
internal_value=0 0.230675 0.430662 0.325982 0.25549 -0.358635 0.0691851 0.892768 0.559077 0.652611 0.863233 0.589528 0.389031 1.52574 -0.339826 -0.137434 0.692047 1.48095 1.0235 -0.255443 0.0145047 0.434439 1.2703 -0.183457 1.02685 -0.126831 0.162908 -0.014715 -0.00156001
internal_count=5501 2883 1998 1872 1792 885 414 142 897 826 613 443 391 170 2618 1406 144 126 118 1262 723 429 179 250 146 895 498 245 448
shrinkage=0.05


Tree=12
num_leaves=30
num_cat=0
split_feature=98 2 86 129 10 120 20 1 88 53 50 37 110 16 48 51 74 136 133 12 25 25 126 60 138 92 87 54 40
split_gain=37.5646 23.8333 20.5143 17.0842 16.5884 16.9054 13.8436 13.4742 15.7004 13.3912 10.5392 17.5557 11.406 10.0934 12.3942 10.0908 9.7251 13.6986 12.7527 12.5054 11.1578 15.96 9.39114 10.3238 9.87339 15.8405 12.7409 8.92107 9.52928
threshold=-1.8273262728182933 1.0000000180025095e-35 -1.2100825144891949 9111405.6680565048 295372542877.94867 0.19941719694645257 385729.03038409149 77.500000000000014 1322127.309841634 5340.5000000000009 -1.9643620083951323 -1.192979278420869 -1.9507765617699695 229385.24906919419 -0.10769719037247652 5062.0958333333338 -0.14785567496002702 1359205.4999641299 -1.2059703377165687 -1.0017392758172516 -1.1935740335530902 -1.2134894414781119 15904735.968270777 0.32712862848802721 4531062.4401213126 2394541.6557591795 5162.5525362318849 1293750.3486289461 1129908.7026817359
decision_type=8 2 8 10 2 10 2 2 10 2 2 2 10 2 2 2 2 10 8 2 2 2 10 2 10 10 10 2 2
left_child=1 4 7 15 6 22 13 10 -9 -10 11 -2 -12 -1 -15 -3 17 18 -4 20 21 -19 23 24 25 -6 -27 -18 -29
right_child=2 3 16 -5 5 -7 -8 8 9 -11 12 -13 -14 14 -16 -17 27 19 -20 -21 -22 -23 -24 -25 -26 26 -28 28 -30
leaf_value=-0.010268048754436604 -0.012205355878883229 -0.001228391492296256 0.083110089102293963 -0.016459654217103208 -0.014384294193769154 0.10923985321633108 -0.0097427840820435152 -0.021905658101347199 0.015239849316070109 0.10805728191064862 0.047403891101079329 0.1018515666795949 -0.017961027000538476 0.023362527900578526 0.11965122970843617 0.07392354402417016 -0.037108404566562649 0.0014870393776781521 -0.0096750807308300275 -0.029957055695270129 -0.039422137916228062 0.11071599101947416 -0.017507105943501768 -0.0090086124099176702 0.092272084746004512 0.00971422125220474 0.089896633095586528 0.048967310286320946 -0.028838951522582645
leaf_count=50 80 70 79 692 75 54 348 70 67 81 67 55 677 67 50 74 1249 121 95 693 84 59 57 60 89 51 90 75 122
internal_value=0 0.323237 -0.230348 -0.0903929 0.605377 0.934455 0.190177 0.124303 0.804547 1.35709 -0.0617449 0.738187 -0.219336 0.859937 1.34344 0.773466 -0.419005 -0.179262 0.700606 -0.349059 0.301551 0.7812 0.734807 0.883006 1.07197 0.779362 1.24828 -0.621688 0.0610548
internal_count=5501 1827 3674 836 991 476 515 1097 218 148 879 135 744 167 117 144 2577 1131 174 957 264 180 422 365 305 216 141 1446 197
shrinkage=0.05


Tree=13
num_leaves=30
num_cat=0
split_feature=110 1 18 83 62 45 32 90 30 29 1 37 32 88 48 26 109 64 146 41 98 127 49 85 114 94 84 90 136
split_gain=34.4178 23.4098 16.7189 14.5431 14.4753 14.3439 14.0968 15.3562 13.2702 11.682 11.5529 17.2022 14.112 11.5222 11.0374 10.8613 10.1168 13.0589 12.2265 10.0038 12.2291 14.1204 11.2968 10.8134 9.93167 9.80255 9.05949 8.93308 10.9089
threshold=-1.3967827198896274 67.500000000000014 480111.82299836574 0.084388220309419101 -1.3549105825621497 8621037.290271135 772955.06371910695 1541607.0733373074 22615.003786287747 16921.500000000004 49.500000000000007 -1.2244483014599401 326778.91782713123 2809715.3926287959 0.061823458132102306 -1.8650942471686227 -1.2030372633626667 1357007.8236990275 -1.9623572763707406 10049.000000000002 -1.8832405693264114 2907.2942539916935 -1.1375760005395108 -1.168591853839041 243144.25024918959 19643497479767.113 0.52211575150982525 9398623.8526215591 3162353.3027837151
decision_type=8 2 2 10 2 2 2 10 2 2 2 2 2 10 2 2 10 2 10 2 10 10 2 10 10 8 10 10 10
left_child=1 2 3 8 10 -4 9 -8 -1 19 -2 12 -12 -10 -15 16 17 18 -7 20 21 -3 23 -23 -16 -9 -22 -6 -29
right_child=4 6 5 -5 27 15 7 25 13 -11 11 -13 -14 14 24 -17 -18 -19 -20 -21 26 22 -24 -25 -26 -27 -28 28 -30
leaf_value=0.059641406693279123 -0.029639539807300847 0.092754617972967343 0.049063517250329217 0.082183877469617125 -0.030046448851533125 -0.0052723823229155857 0.10039538708539669 0.056428162074026116 -0.032575670459737874 -0.049730457727094307 0.12140407200618525 -0.0014581891013277157 0.01561183789398761 0.062034045128905382 0.043154669653769497 -0.037433575802880252 -0.030877332418769068 -0.055396662825566018 0.075757121522913404 0.065801564463619219 -0.014585898910295917 0.015626487701270585 -0.034064184365972042 0.081012991271794871 -0.037748615825002226 -0.024805453318441653 0.051203647620566353 0.029476544440188518 -0.022068543222664744
leaf_count=87 194 53 80 65 1573 93 85 79 205 59 62 280 67 82 50 570 192 56 90 100 321 168 61 57 91 58 51 190 382
internal_value=0 0.216525 -0.042638 0.360217 -0.308468 -0.30466 0.527669 1.15998 0.178681 0.358674 0.134765 0.422725 1.38629 -0.060597 0.380075 -0.420888 -0.0444055 0.386473 0.760124 0.441591 0.324961 0.669555 0.416277 0.681876 -0.125915 0.509013 -0.0850649 -0.457501 -0.0777132
internal_count=5501 2753 1661 580 2748 1081 1092 222 515 870 603 409 129 428 223 1001 431 239 183 811 711 339 286 225 141 137 372 2145 572
shrinkage=0.05


Tree=14
num_leaves=30
num_cat=0
split_feature=14 1 78 19 10 112 30 40 135 95 2 1 146 78 146 14 52 88 60 134 144 121 78 95 72 51 136 85 61
split_gain=31.837 27.8594 18.9194 15.0717 18.0147 13.3105 13.1356 11.9965 10.6504 12.2833 10.5656 15.8327 12.3745 9.80832 12.1615 21.0387 11.3377 9.25674 9.39894 15.3755 11.0171 11.3087 12.2758 10.5733 10.319 9.01246 9.7415 13.7952 12.3343
threshold=-1.4650097305930483 49.500000000000007 32038.578849699206 2808.8650972010751 303297921755.3653 4488178.0700170351 357566.30361436581 761028.91556296626 16369.755050505051 0.071771374509654887 1.0000000180025095e-35 87.500000000000014 -1.9476384929187229 913263.64192402607 0.23814770206055405 0.83712779771861923 327993.08460049302 913340.35494411259 -0.026350040263848722 -1.6895427946003647 0.21870157218001454 -1.1632900078990185 390148.89509394788 -0.016066127211197084 0.020221570685222942 5261.4045698924738 1218029.4402123352 -1.1258220667217724 -1.196296744367509
decision_type=2 2 8 2 2 10 2 2 8 10 2 2 8 8 8 2 2 10 2 10 8 8 10 10 2 2 10 8 2
left_child=1 5 -3 -4 25 -1 7 -7 9 17 11 12 -2 14 15 16 -14 -6 19 23 21 22 -20 -19 -24 -5 28 -28 -27
right_child=10 2 3 4 8 6 -8 -9 -10 -11 -12 -13 13 -15 -16 -17 -18 18 20 -21 -22 -23 24 -25 -26 26 27 -29 -30
leaf_value=-0.039060678280044073 0.05366832638382505 0.063340674587539794 0.071156892598193189 -0.031477799002071934 -0.016897227072392516 0.093073069495416424 -0.020531491398494806 0.0028982260400011194 -0.035829923209405638 -0.028959356965227275 -0.028549934050450195 0.080744797684116243 -0.042141505145535163 -0.023783741511687384 -0.029877081703080333 0.12203175650189185 0.047332209522541191 -0.0066078612363406333 -0.030475730057845814 0.1113220951240394 0.078313407492456119 -0.050159634468941131 0.013085647691175643 0.060800106791345968 0.073176768872248596 0.096038717825989939 -0.017027036939481984 0.057072310386059692 -0.0091898790072296333
leaf_count=471 78 126 80 256 75 52 272 90 71 84 1169 54 79 948 160 55 75 70 58 78 52 54 133 125 97 57 451 74 57
internal_value=0 0.198305 0.370953 0.278135 0.214289 -0.338241 0.0721666 0.78803 0.480895 0.561526 -0.311064 -0.114962 -0.192429 -0.278877 0.191946 0.685591 0.0612284 0.665723 0.76312 1.15741 0.486937 0.285848 0.490856 0.752844 0.793011 -0.131721 0.0812898 -0.113142 0.923042
internal_count=5501 2883 1998 1872 1792 885 414 142 897 826 2618 1449 1395 1317 369 209 154 742 667 273 394 342 288 195 230 895 639 525 114
shrinkage=0.05


Tree=15
num_leaves=30
num_cat=0
split_feature=26 1 10 61 1 133 58 32 127 114 107 86 85 47 109 78 146 97 12 97 23 56 71 97 84 42 30 47 54
split_gain=29.2217 22.6685 17.7346 15.3513 11.5425 11.6671 10.9775 10.8944 14.3291 15.1918 12.8236 10.194 10.1298 10.0025 10.2343 9.50441 9.0066 11.1067 15.9224 18.6265 10.8755 11.7995 9.3828 8.88648 8.77785 8.47501 8.24647 10.2356 8.92101
threshold=-1.694977998621459 34.500000000000007 310557219481.8454 -1.3231313470942749 62.500000000000007 -1.2621677626914554 71260874592.266678 840542.32907629712 2991.4280562237486 11873835.939424364 -0.012948663815392971 4.3472941841474082 -1.2494156095387545 0.049808853393991569 -1.1294970941824667 41544.165714922936 -1.931254996244711 -1.1998154399850911 -0.01448435411933085 -1.2189124157279354 -0.0018676741134502348 163619.82874757503 -0.0063789141868645597 -1.1512020103346574 0.084898481987635624 58825.427145310568 96471.492687926991 0.011350742316723558 445653.25123136543
decision_type=2 2 2 2 2 10 2 2 10 8 10 10 10 2 8 10 10 10 2 8 2 2 2 8 10 2 2 2 2
left_child=1 25 13 6 -5 -6 -2 16 -9 10 -10 12 -4 14 26 -14 22 18 19 -18 -21 -22 -7 24 -17 -1 27 -3 -28
right_child=3 2 11 4 5 7 -8 8 9 -11 -12 -13 15 -15 -16 23 17 -19 -20 20 21 -23 -24 -25 -26 -27 28 -29 -30
leaf_value=0.028292918226497911 -0.0054910497692868161 0.0089419444009765422 0.070084584524696389 -0.026563623534212905 -0.041106810314212726 -0.017607144878340929 0.089306149588791142 -0.024040099769720675 -0.055063332601424125 0.10952539544409406 0.055484549446496903 -0.016857038061514975 0.072423671014197027 -0.03267504438610383 0.075395311211347057 0.039435735829311654 -0.017465571204355858 -0.032274010256119749 -0.042639182304065937 0.0060833071613466778 0.11396791143187526 0.020598252073549421 0.072247093783128893 -0.025194968374227529 -0.0072983395257681773 -0.042030113611457996 -0.016791617239569449 0.084762235640143013 0.038686127594253938
leaf_count=56 65 143 123 1471 231 51 51 97 50 82 83 90 59 171 50 336 264 491 182 103 89 62 61 74 101 297 421 52 95
internal_value=0 0.256171 0.375303 -0.226724 -0.276962 -0.106762 0.868892 -0.00467386 0.55546 1.05257 0.342331 0.651116 0.747147 0.0524882 0.206867 0.589052 -0.143791 -0.241484 0.0331276 0.334677 0.94709 1.5087 0.679404 0.448796 0.586383 -0.579992 0.10241 0.612092 -0.129683
internal_count=5501 2068 1715 3433 3317 1846 116 1615 312 215 133 783 693 932 761 570 1303 1191 700 518 254 151 112 511 437 353 711 195 516
shrinkage=0.05


Tree=16
num_leaves=30
num_cat=0
split_feature=110 2 139 114 62 88 78 54 86 46 104 49 121 95 29 83 11 10 59 145 49 90 136 141 137 35 1 56 126
split_gain=27.4257 19.7298 18.7298 16.6317 12.751 12.3051 10.635 10.5873 12.658 12.3481 10.4181 11.4099 14.5822 13.6397 9.0676 12.9168 10.654 9.28308 10.1279 9.08013 8.82774 8.70487 9.82552 13.3153 8.73557 12.1435 8.28994 7.86376 7.78058
threshold=-1.3967827198896274 1.0000000180025095e-35 2869.0490359390701 68363.139624035815 -1.3549105825621497 11961554.179192049 46170.161362401501 596741.74743631738 1.2975748288442979 261834079181.78354 573947.0947326239 -1.2306340045608444 -1.2569467291759608 0.014555234281821854 5463.5000000000009 -0.026934949305009826 -0.043079128271703564 263824708571.12985 -0.03891530663711195 -1.2497566193029555 -1.1779132554636729 9398623.8526215591 3162353.3027837151 10058065.213864768 5100.5000000000009 0.0033423475090086723 56.500000000000007 573408.46272403782 17920292.014255278
decision_type=8 2 10 10 2 10 10 2 8 2 10 2 10 10 2 10 2 2 2 10 2 10 10 10 10 2 2 2 10
left_child=1 3 -3 -1 10 7 -4 14 9 -9 26 13 -13 -12 -5 17 -17 18 -16 -18 -21 -6 23 -23 25 -24 -2 -11 -8
right_child=4 2 6 5 21 -7 28 8 -10 27 11 12 -14 -15 15 16 19 -19 -20 20 -22 22 24 -25 -26 -27 -28 -29 -30
leaf_value=0.083050889719947632 -0.0022824126719126893 0.055336928883002949 0.034512609513059608 -0.0069877163821178041 -0.028709254892247606 -0.040440322163527637 -0.021824010898027237 0.097925016563606429 -0.010072512891869785 0.073871764479044477 0.075142434166488928 0.048363850351196697 -0.03537647260643708 -0.033021947392048265 0.078314616612411889 0.049840645970463629 0.049359778784176189 0.085771291755071158 -0.0075514232275126925 -0.032611598094879117 0.02671425218390356 -0.025179930318079885 0.087526790312924346 0.067475690831052343 -0.037304658012728913 -0.040352471382971988 0.093387110441550958 0.0098758413565364078 0.042627415241292876
leaf_count=68 51 92 73 365 1573 95 1001 84 94 56 82 59 304 55 54 98 53 78 97 223 75 82 50 108 282 50 52 97 50
internal_value=0 0.188656 -0.131995 0.39897 -0.283414 0.324379 -0.262469 0.389469 0.82325 1.12109 0.131082 -0.0663539 -0.37774 0.736919 0.234758 0.442962 0.143217 1.01955 0.497666 -0.11059 -0.328788 -0.42823 -0.0493768 0.576505 -0.407927 0.520018 1.09045 0.662167 -0.368939
internal_count=5501 2753 1216 1537 2748 1469 1124 1374 331 237 603 500 363 137 1043 678 449 229 151 351 298 2145 572 190 382 100 103 153 1051
shrinkage=0.05


Tree=17
num_leaves=30
num_cat=0
split_feature=2 98 1 50 111 28 119 126 66 86 106 49 131 28 143 112 70 32 5 116 69 13 14 88 56 88 79 108 59
split_gain=25.487 22.1454 18.267 17.0807 16.6294 13.7036 21.5525 13.6328 11.3922 11.3054 12.8771 12.8788 11.1735 10.9575 13.8148 12.919 17.8981 10.6929 10.5735 10.1612 10.0515 9.21565 13.3285 8.73403 11.6554 8.42864 8.16183 9.67575 10.8682
threshold=1.0000000180025095e-35 -1.6974847059315981 48.500000000000007 -1.9498859843879086 4739.1833333333343 122739.80926843944 0.0076007271293049806 57448.494087306848 4883101.9945716653 -1.0000000180025095e-35 332043498418.94708 -1.1660261776044396 -0.0090530350714023589 346947.39856015606 0.018300365660762818 7451125.1786340708 42349649609.091225 772955.06371910695 4586.5000000000009 2465014.1414643587 10656543.031449275 -1.1971107234082623 -1.9483985193162561 10553477.053455109 321269.20884870685 4918223.8632355565 3043.1653731644546 0.0020184211622845884 -0.0041410385941858911
decision_type=2 8 2 2 10 2 10 10 2 8 10 2 10 2 10 10 2 2 2 10 2 2 2 10 2 10 10 10 2
left_child=1 7 -2 17 -5 6 -3 -1 9 10 -7 23 -9 14 15 16 -14 21 -6 -15 -13 22 -4 -12 -25 -22 -21 -28 -29
right_child=2 5 3 4 18 8 -8 12 -10 -11 11 20 13 19 -16 -17 -18 -19 -20 26 25 -23 -24 24 -26 -27 27 28 -30
leaf_value=0.08139151384233255 -0.038587982176582963 -0.026550023745197923 -0.020897608144691212 0.07222067987642164 0.049311022197101595 0.063558898219067433 0.11505852874713735 0.00047469029534038913 0.07024994378965442 -0.028143550424412214 -0.033187346658684579 -0.0083057275603513857 0.092175818838009654 0.068793640166971273 0.012035506092607387 0.12317304091201636 -0.023566555589279115 0.078184721545579261 -0.021450681360830531 -0.030499487357680984 0.013670467786357353 -0.026260089666208963 0.064572110328846674 -0.034611798850602636 0.075006420192128082 0.10856447733877389 -0.023279275732755639 0.084939899487128392 0.010228715442110913
leaf_count=53 799 56 61 53 54 88 62 433 54 826 399 98 53 62 111 51 51 60 1308 100 50 97 101 59 50 52 87 62 111
internal_value=0 0.182964 -0.272241 -0.100993 -0.282485 -0.0976489 0.985284 0.455017 -0.186265 -0.240502 0.0342402 -0.116822 0.376093 0.59695 1.01117 1.50016 0.902209 0.490799 -0.361605 0.289776 0.576958 0.223771 0.635443 -0.419077 0.415359 1.30274 0.100583 0.373305 0.752255
internal_count=5501 2968 2533 1734 1415 1794 118 1174 1676 1622 796 708 1121 688 266 155 104 319 1362 422 200 259 162 508 109 102 360 260 173
shrinkage=0.05


Tree=18
num_leaves=30
num_cat=0
split_feature=14 1 19 10 96 50 66 26 72 1 23 122 12 62 73 73 112 88 109 140 128 78 134 84 98 1 86 107 53
split_gain=23.997 21.2146 13.456 16.3096 15.4487 11.6337 11.2505 10.106 9.74231 9.64985 9.0135 13.2892 10.9277 18.8506 21.8621 14.1039 10.7267 8.97361 9.2302 10.3775 12.1166 10.5795 10.9221 8.88942 9.55739 9.35884 7.95723 8.55099 10.5292
threshold=-1.4650097305930483 38.500000000000007 2808.8650972010751 303297921755.3653 -2.8895502716702537 -1.7217742766146786 478576.81511611294 -1.9704517700137341 -2.0102224275103109 64.500000000000014 -0.0093457552246548649 -1.8917320194739518 -1.0484205379205036 3.1028011671472169 -1.1851047202815661 -1.2180956863156827 2599411.6797369919 1146721.4251328076 -1.2488013929487938 7489222.1793483375 10294971.641677162 62861.151560781123 -1.9779147974494247 -0.11775591048572261 -1.8832405693264114 70.500000000000014 -1.9024550677268788 0.060727908719645229 6494.5000000000009
decision_type=2 2 2 2 10 2 2 2 2 2 2 10 2 2 2 2 10 10 10 10 10 10 10 10 10 2 10 8 2
left_child=1 -1 -3 6 -5 17 7 -4 -8 -2 16 -12 13 14 15 -13 -11 -6 -19 20 21 -20 -23 24 -24 -25 -9 28 -28
right_child=9 2 3 4 5 -7 8 26 -10 10 11 12 -14 -15 -16 -17 -18 18 19 -21 -22 22 23 25 -26 -27 27 -29 -30
leaf_value=-0.02453678560392036 -0.026918461369719232 0.061672349421363119 0.055670506110812479 0.10761242475202033 -0.011271903067292283 -0.011389555338463617 0.047186872398909001 -0.03801993270467921 -0.031317973141566764 0.036884038259329309 0.059765956883421262 0.02885020404737848 -0.021080134202582358 -0.034621410652720029 -0.044195134437057061 0.13081493836703367 -0.033384447029512633 0.074722744523287685 0.073445604933931041 -0.029327874652746933 0.087377900959202892 -0.040402903369638601 0.061067600203433436 -0.027226517628222088 0.0010470986341139436 0.042588263260210056 0.046823098291394055 -0.042245454900442098 -0.0066433105463246309
leaf_count=564 1212 94 92 50 116 260 56 105 458 75 83 74 443 132 59 78 462 73 50 61 53 61 123 115 88 50 157 67 190
internal_value=0 0.167119 0.2736 0.219817 0.445074 0.380255 -0.0735194 0.1932 -0.466943 -0.279705 -0.0925041 0.12112 -0.0485164 0.416528 1.0228 1.65529 -0.457447 0.522494 0.632553 0.519849 0.631452 0.489235 0.329748 0.494579 0.836742 -0.0161692 0.021325 0.210377 0.397259
internal_count=5501 2883 2319 2225 1100 1050 1125 611 514 2618 1406 869 786 343 211 152 537 790 674 601 540 487 437 376 211 165 519 414 347
shrinkage=0.05


Tree=19
num_leaves=30
num_cat=0
split_feature=2 98 1 86 1 50 111 114 88 98 106 28 76 5 145 56 32 6 13 14 108 40 78 61 132 59 21 11 131
split_gain=22.7169 19.0172 16.5056 16.299 14.4754 14.4343 14.1301 13.673 13.5419 12.1658 10.5712 9.71724 9.54993 9.24608 8.91691 10.8031 8.89772 8.33172 8.06879 11.0745 7.97959 7.90558 7.85648 13.1381 8.83232 13.1527 7.55141 7.17948 7.15525
threshold=1.0000000180025095e-35 -0.87150697048052994 48.500000000000007 -1.2100825144891949 87.500000000000014 -1.9498859843879086 4739.1833333333343 111208.76540371562 9125157.1019819435 -1.934497094573483 257282429760.09335 122739.80926843944 3652661.7290522675 4586.5000000000009 -1.2390266253823121 342050.22836954024 772955.06371910695 31551.526189472472 -1.1971107234082623 -1.9483985193162561 -3.2886483384291698 1600049.1272415079 3144636.3622979233 -1.2137306628367532 0.12824485914008413 -0.0036008934433242805 8573605.0315270964 -0.026910250454181807 0.00287675148405139
decision_type=2 8 2 8 2 2 10 10 8 10 10 2 10 2 8 2 2 2 2 2 10 2 10 2 10 2 2 2 10
left_child=1 4 -2 8 7 16 -7 17 -3 12 -11 -5 14 -8 -9 27 18 -1 19 -4 -15 22 24 -24 26 -26 -12 -16 -22
right_child=2 3 5 11 -6 6 13 9 -10 10 21 -13 -14 20 15 -17 -18 -19 -20 -21 28 -23 23 -25 25 -27 -28 -29 -30
leaf_value=0.018984998057541825 -0.037542482347596072 0.00060747061626278498 -0.020629918721327412 0.053668196633764313 0.085724873075430988 0.063535661714641339 0.044299412325215219 0.081631099443505606 0.083545592480293113 0.070307736441689916 0.034372769895346225 -0.025232022998739775 -0.020161852296182538 0.039484538038114719 0.045955777168373346 0.051796485779442625 0.06914308666696338 0.08790533733022228 -0.02602899316883861 0.056687438633763049 -0.010603217352540736 -0.046157515861890944 -0.025782513309506025 0.079865140386141842 0.058972850086847564 -0.019396813093585784 -0.022213229002587143 -0.01399375471752509 -0.036931377303123722
leaf_count=51 799 170 61 52 51 53 54 58 62 56 55 1005 84 64 59 141 60 61 97 101 627 115 56 68 91 93 493 147 617
internal_value=0 0.170861 -0.260927 -0.191747 0.351483 -0.100456 -0.271063 0.296686 0.558277 0.208935 -0.00155122 -0.416835 0.551681 -0.347492 0.707551 0.532774 0.434522 1.13295 0.189156 0.563352 -0.413102 -0.0734295 0.0201691 0.762101 -0.0980942 0.446308 -0.308166 0.0699732 -0.474257
internal_count=5501 2968 2533 1289 1679 1734 1415 1628 232 1516 1027 1057 489 1362 405 347 319 112 259 162 1308 971 856 124 732 184 548 206 1244
shrinkage=0.05


Tree=20
num_leaves=30
num_cat=0
split_feature=2 98 1 86 1 50 113 114 119 88 98 86 28 133 88 28 47 88 146 108 23 32 13 38 136 133 131 71 98
split_gain=20.6275 17.0235 15.6201 14.7523 13.0461 13.0138 12.8826 12.4244 12.0082 11.2897 10.0087 9.12196 10.5402 11.7751 10.1072 8.71728 8.38815 8.36417 9.63274 8.14559 8.1236 8.8544 9.44112 9.13791 6.76911 6.51537 6.5095 7.35147 7.13772
threshold=1.0000000180025095e-35 -0.87150697048052994 48.500000000000007 -1.2100825144891949 82.500000000000014 -1.9498859843879086 4569.5000000000009 111208.76540371562 -0.0030262124092388198 9125157.1019819435 -1.934497094573483 -1.8765904477365105 403228.15662577137 -1.2053795610398175 3146092.3795753918 122739.80926843944 0.0089898452133122444 8021161.5789450118 -1.9804086874541922 -3.2886483384291698 0.013626032634484047 622934.55824389844 -1.1971107234082623 -1.5461365601426749 2840559.9016115363 -1.2303979922376092 0.00287675148405139 -0.0063789141868645597 -1.9096851767446772
decision_type=2 8 2 8 2 2 10 10 10 8 10 10 2 10 8 2 2 10 10 10 2 2 2 2 10 10 10 2 8
left_child=1 4 -2 9 7 20 -7 16 -6 24 17 -12 13 14 25 -5 -1 18 -9 -8 21 22 23 -4 -3 -13 27 -21 -29
right_child=2 3 5 15 8 6 19 10 -10 -11 11 12 -14 -15 -16 -17 -18 -19 -20 26 -22 -23 -24 -25 -26 -27 -28 28 -30
leaf_value=0.087531179060162681 -0.036862078637260383 -0.034581879438795378 -0.002619417477081231 0.048767236439156668 0.0049341115142830273 0.056275201604303583 0.041659875982502516 -0.010982559991743917 0.082621156669556398 0.074888521175162981 -0.036888332381027143 -0.015761370005142408 -0.010879474417578725 -0.0069565806914717952 0.098447221286329378 -0.024497320279468399 0.015887164315987447 -0.026634353445575295 0.041412636416641446 -0.025855164497560625 -0.015819640041557941 0.081508782810376934 -0.033645356520021492 0.07834236728196986 0.032755826947254395 0.058670074842505915 -0.032535783076787277 0.054660700525158756 -0.0044823428985238112
leaf_count=50 799 85 51 52 61 54 66 95 92 62 146 50 502 150 66 1005 51 63 302 341 96 53 61 58 85 51 645 63 246
internal_value=0 0.161345 -0.251319 -0.184213 0.330608 -0.0963876 -0.260709 0.24036 1.07059 0.519449 0.154275 -0.0446023 0.0908267 0.511233 1.03755 -0.4033 1.06925 0.473316 0.610573 -0.339061 0.407017 0.697059 0.35368 0.808857 0.0115364 0.466757 -0.400954 -0.156535 0.221763
internal_count=5501 2968 2533 1289 1679 1734 1415 1526 153 232 1425 965 819 317 167 1057 101 460 397 1361 319 223 170 109 170 101 1295 650 309
shrinkage=0.05


Tree=21
num_leaves=30
num_cat=0
split_feature=10 30 1 24 86 20 1 23 124 114 112 84 133 99 122 14 12 85 38 64 28 111 75 104 114 40 84 86 86
split_gain=19.8307 15.8812 15.5181 13.9596 13.3848 11.3327 10.9608 10.5853 10.4893 10.1036 14.7182 10.1033 14.5816 9.46004 8.84519 10.4242 8.71768 11.1763 12.2138 10.1807 16.2255 8.15331 8.1311 7.94808 16.8325 7.55068 7.31683 13.4314 8.02351
threshold=263824708571.12985 108248.9549773695 36.500000000000007 -0.39249978120363671 2.1221200260235054 130554.68707375129 64.500000000000014 -0.041176787003048561 7344647.6165627697 5399025.8300823392 4601538.7625186918 0.029007712566014237 -1.213828063985118 16658.56078431373 -1.8840682886393634 -1.8274350822751522 -0.23579394335992568 -1.1854211881806875 3.280233414222808 1191686.1294089255 412964.74367883831 4972.0476190476202 4932.9504643962855 1372720.2796036797 4759398.2781201424 591688.27122989797 -0.72910475871228209 -1.0963373952621216 -1.3878671737135246
decision_type=2 2 2 2 10 2 2 2 10 10 10 10 8 10 10 2 2 8 2 2 2 10 10 10 10 2 10 8 8
left_child=1 8 -2 21 5 -5 -3 -8 9 10 11 12 -1 26 15 -9 17 18 19 20 -16 22 -4 24 -23 -17 -7 28 -28
right_child=2 6 3 4 -6 13 7 14 -10 -11 -12 -13 -14 -15 16 25 -18 -19 -20 -21 -22 23 -24 -25 -26 -27 27 -29 -30
leaf_value=-0.026972364258533301 -0.02900742699872598 -0.028720412713631623 -0.015642981754171458 0.09122733015401284 -0.013731105919081141 0.054917916521943534 -0.032595136601183947 -0.0059310124217361801 -0.035150467484946275 -0.024153795907412293 0.083733904947760257 -0.019668520910224429 0.079754125873309489 -0.030824932125539335 0.06939057584465104 0.024413277209698391 -0.03114538649542499 -0.039303665193637934 -0.034148423575794257 0.097097904287942557 -0.027095298544903047 -0.038667302435861986 0.061798878496120618 -0.024039440101342929 0.079652128173106448 0.10568648899410626 0.02409575115330468 -0.039342006320836467 0.081320810903044882
leaf_count=50 324 1407 63 53 233 156 336 98 96 91 87 120 91 67 95 54 298 132 101 67 110 74 72 465 71 53 501 86 50
internal_value=0 -0.19906 0.201189 0.286013 0.461031 0.587096 -0.325389 -0.11357 0.279575 0.474205 0.704747 0.293443 0.861183 0.512761 0.0615415 0.611312 -0.128343 0.151544 0.447913 0.801309 0.417958 -0.091624 0.588979 -0.270719 0.44375 1.26784 0.584833 0.454413 0.5786
internal_count=5501 3286 2215 1891 1146 913 2751 1344 535 439 348 261 141 860 1008 205 803 505 373 272 205 745 135 610 145 107 793 637 551
shrinkage=0.05


Tree=22
num_leaves=30
num_cat=0
split_feature=2 98 1 86 127 1 57 111 120 19 119 74 97 50 111 12 119 88 132 62 96 71 5 146 104 98 8 137 14
split_gain=18.3743 14.2522 14.0759 13.5357 11.7242 12.8095 11.7744 13.4158 12.9518 12.3236 11.5246 11.201 13.4382 11.1592 11.2627 10.059 9.31491 9.1166 8.73061 10.6202 8.51364 8.20818 8.06714 8.00356 7.36459 8.1322 7.21299 9.21162 7.07951
threshold=1.0000000180025095e-35 -0.85015505943414305 48.500000000000007 -1.2100825144891949 11630.802043842046 82.500000000000014 11253666.856079983 5851.2056856187301 0.027014786273975848 2897.147647929602 0.0095368967061456311 -0.17709223582952635 -1.2011009517519278 -1.9498859843879086 4739.1833333333343 0.012253356277206485 0.0053303812606008303 9125157.1019819435 0.11496242995734772 -1.7180051240850422 -3.5847289169243814 -0.014608590610734306 4586.5000000000009 -1.9326201123789406 2319321.3203808949 -1.7810831399369504 736052.57909285126 6225.5000000000009 -1.9483985193162561
decision_type=2 8 2 8 8 2 2 10 10 2 10 2 10 2 10 2 10 10 10 2 8 2 2 8 10 10 2 10 2
left_child=1 4 -2 17 5 6 9 -8 11 24 15 23 -13 26 -15 -10 -7 -3 -11 -20 -5 -17 -16 -9 -1 -26 28 -28 -4
right_child=2 3 13 20 -6 16 7 8 10 18 -12 12 -14 14 22 21 -18 -19 19 -21 -22 -23 -24 -25 25 -27 27 -29 -30
leaf_value=0.070595814074979862 -0.035799760241645044 0.0013085974774444038 -0.049205276677212348 0.037962567954098969 -0.057162760457166985 0.019029600077597061 0.079562335592123334 0.01276530310172639 0.10264661467060571 -0.02873343917878092 0.0045989305462497921 0.10008841960498645 -0.009638516555349922 0.053760025672639745 0.040557461732194197 0.070245229795351388 0.086096684848945587 0.067140306591505106 0.056963472740276369 -0.021712203701726048 -0.024739438022426639 0.0016230737376343317 -0.01936215310023038 -0.042708653493058801 0.028790557843415329 -0.046326426117152597 0.072058784678642893 -0.0009669801476260018 0.015896086367623487
leaf_count=57 799 168 55 77 57 71 81 100 58 344 137 50 67 53 54 66 71 62 51 90 970 73 1308 162 104 52 59 59 146
internal_value=0 0.150779 -0.24059 -0.171655 0.302639 0.343616 0.253878 0.501157 0.365544 -0.0235073 0.746253 -0.0559377 0.77965 -0.0954939 -0.250487 1.1616 1.08546 0.495618 -0.298947 0.287347 -0.389314 0.726495 -0.323114 -0.405859 0.529495 0.219223 0.36501 0.83625 -0.0237632
internal_count=5501 2968 2533 1277 1691 1634 1492 794 713 698 334 379 117 1734 1415 197 142 230 485 141 1047 139 1362 262 213 156 319 118 201
shrinkage=0.05


Tree=23
num_leaves=30
num_cat=0
split_feature=10 30 1 24 86 1 23 22 59 97 108 30 54 25 108 54 108 76 24 99 23 144 88 139 84 44 128 120 95
split_gain=17.1401 14.0682 13.4528 11.8191 11.2837 10.0198 9.7716 9.47634 9.38398 8.31637 8.11413 8.02034 9.98444 11.3124 10.8001 10.2169 8.98535 7.86006 7.77254 7.66704 7.62075 8.60942 11.1575 7.29909 6.94848 8.69446 8.95283 10.16 7.68057
threshold=263824708571.12985 108248.9549773695 36.500000000000007 -0.39249978120363671 2.1221200260235054 64.500000000000014 -0.041176787003048561 22442554605.281635 -0.040035878078117496 -1.2189124157279354 0.19338413446232219 2128921.8681766442 231846.89442373617 -1.2490846601738745 0.04057313481679365 129630.07711226038 -2.6423281320707139 5553528.7524517709 -0.52884152286763764 16658.56078431373 0.05245011376989462 -1.4162551920427677 2527540.5121676237 2915.5884638226062 -0.18657611096447804 950353.17389153165 2246018.6572979954 0.13710824325733362 -0.0055946498346927855
decision_type=2 2 2 2 10 2 2 2 2 10 10 2 2 2 10 2 10 10 2 10 2 10 8 10 10 2 10 10 10
left_child=1 8 -2 17 7 -3 -7 -5 9 -1 11 12 13 -8 15 -15 -14 20 -17 24 21 22 -4 -23 28 26 -26 -28 -9
right_child=2 5 3 4 -6 6 10 19 -10 -11 -12 -13 16 14 -16 18 -18 -19 -20 -21 -22 23 -24 -25 25 -27 27 -29 -30
leaf_value=-0.0088443073005455633 -0.02789504526938847 -0.02766777173254566 0.096773204449909597 0.077239043141929586 -0.013042808333064032 -0.031724513385975324 -0.034006411050307099 0.017894070305726394 -0.0023782932511989363 0.061940459321106402 -0.032584936332831667 0.061873917380019489 0.040779904066611139 -0.013831202882053096 0.095165914337806093 0.10426029606445597 -0.028575787878624356 0.042456956398336007 0.013682663423885598 -0.029124050618366017 -0.038124735444876143 0.035370381648310585 -0.0059240468209933051 -0.025173109047306953 0.044395591110857911 0.040033284435423727 -0.028670849047321097 0.033358502361695068 0.059599279710923964
leaf_count=57 324 1407 50 64 233 336 79 143 361 117 189 69 69 124 54 51 323 85 50 66 200 61 76 273 75 163 175 58 169
internal_value=0 -0.187998 0.185283 0.262476 0.421488 -0.309489 -0.107577 0.534709 0.259555 0.812682 0.0590085 0.193985 0.0858578 0.469016 0.766584 0.404987 -0.318698 -0.087412 1.1568 0.45981 -0.213844 0.0236549 0.793529 -0.250315 0.522882 0.314346 0.039894 -0.213626 0.825887
internal_count=5501 3286 2215 1891 1146 2751 1344 913 535 174 1008 819 750 358 279 225 392 745 101 849 660 460 126 334 783 471 308 233 312
shrinkage=0.05


Tree=24
num_leaves=30
num_cat=0
split_feature=2 129 98 86 50 127 1 57 21 111 120 74 97 119 132 98 62 12 119 28 88 146 71 124 41 108 61 31 4
split_gain=16.5203 13.0318 12.0407 12.1961 11.5631 10.6134 10.8856 10.4642 11.0888 10.8664 11.0008 9.99261 11.2186 9.84376 9.74911 9.64552 8.1724 8.17105 7.74618 7.66777 7.61982 7.52259 7.00664 6.97715 7.9974 6.59651 10.0927 6.52595 8.095
threshold=1.0000000180025095e-35 13710417.678469682 -0.85015505943414305 -1.2100825144891949 -0.96136777443375376 11630.802043842046 82.500000000000014 11253666.856079983 8776921.1799719911 5851.2056856187301 0.027014786273975848 -0.17709223582952635 -1.2011009517519278 0.0095368967061456311 0.11496242995734772 5.6281602921906329 -1.7180051240850422 0.012253356277206485 -0.011469041173010021 122739.80926843944 9125157.1019819435 -1.9326201123789406 -0.014608590610734306 1609046.5137339642 6051.0000000000009 -2.4615337245083126 -1.2254730980569593 2830.0261824857284 694657.57361291384
decision_type=2 8 8 8 2 8 2 2 2 10 10 2 10 10 10 8 2 2 10 2 10 8 2 10 2 8 2 2 2
left_child=2 4 5 20 15 6 7 8 27 -9 11 21 -13 17 -10 23 -16 -12 -8 -5 -4 -11 -19 -2 -25 26 -21 -1 -29
right_child=1 -3 3 19 -6 -7 18 9 14 10 13 12 -14 -15 16 -17 -18 22 -20 25 -22 -23 -24 24 -26 -27 -28 28 -30
leaf_value=0.066132921097211986 -0.035120868434743401 -0.02532174079889591 0.0016195190416728241 0.044839292982962423 -0.022493644196238328 -0.056688806612158207 0.0044483878148997621 0.070971082838887631 -0.028777172062361446 0.012253994329062958 0.092025895579261968 0.089494274382542469 -0.0092566360600146499 0.0039489216475574879 0.051197277925832611 0.085359375007457883 -0.016287966079896878 0.063944091297457456 0.069727313859587733 0.053196626179518175 0.061089113163367285 -0.041846481391652562 0.0011695681046739162 0.0076500495092036054 0.071851690987154423 -0.032139817445397442 -0.0279089041608447 -0.030752620605715264 0.036845257242221083
leaf_count=52 91 1300 168 52 540 57 51 81 355 100 58 50 67 137 54 50 91 66 91 86 62 162 73 494 58 769 140 69 77
internal_value=0 -0.231036 0.141883 -0.157916 0.00452087 0.280045 0.317769 0.234471 -0.0284289 0.465202 0.341249 -0.0507881 0.724268 0.686337 -0.281933 0.239543 0.322272 1.06111 0.99204 -0.370029 0.469064 -0.389453 0.66905 0.147449 0.269701 -0.458357 0.0999663 0.514039 0.199767
internal_count=5501 2533 2968 1277 1233 1691 1634 1492 698 794 713 379 117 334 500 693 145 197 142 1047 230 262 139 643 552 995 226 198 146
shrinkage=0.05


Tree=25
num_leaves=30
num_cat=0
split_feature=1 26 98 66 112 29 86 120 1 65 142 8 12 73 14 42 84 88 68 37 80 130 134 98 60 47 72 97 28
split_gain=15.8871 16.8814 12.2092 12.0172 12.9404 11.8818 11.4254 11.2836 11.2384 11.0408 12.1998 12.8957 9.98532 13.1426 10.3824 9.52987 9.52739 9.31427 15.5121 8.95945 8.8732 8.25008 8.8294 8.47696 8.09424 10.2968 11.5632 10.411 8.06442
threshold=70.500000000000014 -1.8622785145719252 -0.65641200128836463 321955.77548128954 3271426.9321328984 16921.500000000004 -1.1780634519574031 -0.51632186050692508 37.500000000000007 5209.5000000000009 5882113603722.5264 502901.1633567047 -1.0484205379205036 -1.2026813528045628 -1.4650097305930483 518970.4519826973 0.53983981216756016 15698832.062048277 389939.343465071 -1.1734415793939961 356702.77048561699 96407609872363.297 -1.977059927264748 -1.6974847059315981 0.08328787391077809 0.0080049921178438569 0.016737937327936315 -1.2098653233854495 403228.15662577137
decision_type=2 2 10 2 10 2 10 10 2 2 10 2 2 2 2 2 10 10 2 2 10 8 10 8 2 2 2 10 2
left_child=1 8 5 4 -3 12 7 -4 -1 -6 11 15 13 -2 16 -11 24 -5 -19 21 -16 22 -10 -24 25 26 27 -14 -12
right_child=2 3 6 17 9 -7 -8 -9 19 10 28 -13 14 -15 20 -17 -18 18 -20 -21 -22 -23 23 -25 -26 -27 -28 -29 -30
leaf_value=-0.023951946695880535 0.10294260831146343 -0.036906211918261593 0.08327433997571472 -0.031017675841934877 -0.036722815544283159 -0.048310390856989349 -0.021235500279800274 -0.0063750329373688935 -0.039046767199781181 0.057395834378791838 0.031223206634880131 0.096847168736091255 -0.02392296128860787 2.5723046404680328e-05 0.028274305155910669 -0.034612482080988383 0.078506546211715517 0.069741434018081847 -0.039445174871612781 0.037546646083056301 -0.036356653100522586 0.058235458214056512 0.019732007794384259 -0.03010930447487294 0.0019827542870933515 0.0039364462820126742 0.092041524501268152 0.054307861434499664 -0.051307949565079683
leaf_count=339 67 197 52 1638 98 72 648 89 125 68 50 88 53 50 84 71 51 80 101 243 159 50 286 127 257 143 61 87 67
internal_value=0 -0.154753 0.214333 -0.349857 0.0343237 0.381012 -0.168231 0.598407 0.135258 0.33399 0.590537 1.05482 0.44714 1.27259 0.351979 0.346388 0.502999 -0.525233 0.274372 0.287723 -0.251149 0.0865193 -0.0276486 0.165749 0.405054 0.670352 1.03013 0.555941 -0.218465
internal_count=5501 3628 1873 2458 639 1084 789 141 1170 442 344 227 1012 117 895 139 652 1819 181 831 243 588 538 413 601 344 201 140 117
shrinkage=0.05


Tree=26
num_leaves=30
num_cat=0
split_feature=86 2 124 51 19 112 4 99 62 113 30 92 13 114 135 25 114 60 109 108 121 121 60 108 26 122 62 100 90
split_gain=14.6013 12.7424 12.4747 11.5338 11.3455 11.2067 10.8467 10.7585 10.385 10.2604 11.59 10.3215 10.0988 12.3565 9.42895 7.97423 7.62345 10.4456 9.07518 10.0483 7.54152 10.3552 11.5436 9.7777 8.85522 7.52976 6.6281 6.35743 6.9538
threshold=4.1817993948464336 1.0000000180025095e-35 5438829.1141709443 5190.6181818181831 2812.5882432055619 8499661.9212540146 636213.27993146109 5166.5766129032263 0.46602238934380785 4983.5000000000009 144932.13465758334 1925213.8846351244 -1.180137759301896 4588067.4124779524 4781.0109890109898 -1.1318056630754569 332043.99313438701 -0.049662218425689166 -1.1792483450597111 0.064404316457000635 -1.2005406908012082 -1.2068206099810146 -0.0062239110928405316 -2.7600664357172717 -1.9039475400914359 -1.7527002961293003 -1.7432791058477413 1478420.9028281935 3600207.4456620826
decision_type=8 2 10 2 2 10 2 8 2 8 2 10 2 10 10 2 10 2 10 10 10 8 2 10 2 10 2 10 8
left_child=1 2 3 7 -3 9 26 15 16 -5 11 -11 -12 -14 -6 -1 -8 18 19 -18 21 23 25 -16 27 -23 -4 -25 -29
right_child=-2 4 6 5 14 -7 8 -9 -10 10 12 -13 13 -15 20 -17 17 -19 -20 -21 -22 22 -24 24 -26 -27 -28 28 -30
leaf_value=-0.025971756819316641 -0.020204242395989228 0.043613169979495867 0.014090863170375787 0.088143487306960547 0.043469914050143166 0.089152321770828852 0.056135657673493336 0.057831233721259978 -0.028207628366199441 0.012849950114345027 -0.013116134683058429 0.076044994480073458 0.0013845251007790511 0.099074950419821381 0.042623693475557466 0.036615781378694465 0.024373134534058323 -0.011039986176846013 -0.029303663271748711 0.097752280178361114 -0.028405068082083814 0.099471936698467933 -0.012463059484722603 0.052332066351203313 -0.031314494456828226 0.010217631469185265 -0.031131119425314598 -0.035297609428190727 0.032322721149588264
leaf_count=244 1136 87 94 51 75 66 59 53 190 102 287 94 76 51 90 53 149 240 51 54 707 51 125 57 640 55 413 96 55
internal_value=0 0.0655267 0.212053 0.443655 -0.147176 0.655559 -0.0104442 -0.0152243 0.211818 0.533055 0.419059 0.940944 0.0875199 0.792199 -0.21391 -0.260223 0.38116 0.222685 0.66333 0.934225 -0.269517 -0.099864 0.55553 -0.266285 -0.381713 1.30157 -0.405694 0.145818 -0.178779
internal_count=5501 4365 2327 1077 2038 727 1250 350 743 661 610 196 414 127 1951 297 553 494 254 203 1876 1169 231 938 848 106 507 208 151
shrinkage=0.05


Tree=27
num_leaves=30
num_cat=0
split_feature=1 27 87 87 10 14 97 133 97 86 110 45 126 143 126 1 133 112 143 121 37 142 40 26 14 1 27 2 109
split_gain=14.3725 11.5828 13.2691 21.5889 14.9596 10.9726 10.7377 10.3578 10.0829 12.2476 11.331 9.55639 9.41829 9.79674 14.5516 9.34374 9.29092 11.4588 7.93157 7.76213 7.71655 9.21705 7.6924 7.95168 7.69102 7.41088 7.89132 8.10263 9.56975
threshold=64.500000000000014 16715.715750915755 10328.363636363638 11035.012393162395 59892543785.599144 -1.8028682480476277 -1.2182196089966437 -1.2077674829316967 -1.2000900287917611 -1.8893037688057002 -1.0909583006167125 8681685.584962409 4664985.6392849134 0.01369121016487553 9117910.3946052138 75.500000000000014 -1.2497427164903596 4698700.8150543282 0.0025697995503053965 -1.2104610755240806 -1.1761149823447636 4334131086900.4253 450093.26311684476 0.85052861181985906 -1.1217350992939334 26.500000000000004 5067.7090909090921 1.0000000180025095e-35 -1.2051033146672587
decision_type=2 2 10 10 2 2 10 10 10 10 10 2 10 10 10 2 10 10 8 10 2 10 2 2 2 2 2 2 8
left_child=5 2 4 -4 7 11 20 16 9 -8 12 -1 -10 14 -14 18 -2 -18 -5 -19 -6 -22 -11 24 -24 -13 -27 -28 -29
right_child=1 -3 3 15 6 -7 8 -9 10 22 -12 25 13 -15 -16 -17 17 19 -20 -21 21 -23 23 -25 -26 26 27 28 -30
leaf_value=0.04965448472138273 -0.032114030476581977 -0.035751109667473358 0.12252706090737714 0.085386672432863076 -0.019147924330784185 -0.020907425588892262 -0.0030732997183263496 -0.032662050037164637 0.045615031227029076 0.0090321375548502707 -0.027905526065124475 -0.044256783959335938 -0.02996933722462989 -0.045675648093049546 0.076617827515964076 -0.01807591258839562 0.070729383683683172 -0.036012722017730925 -0.0016155457528467276 0.045597691508686797 0.05922765184556944 -0.0086694783806628949 0.068720445747635805 0.12312164337965048 -0.0040141101678485332 -0.037063302677138733 0.020432037463035922 0.015678003313873062 -0.040039809544444825
leaf_count=84 127 195 61 56 320 1710 91 433 146 51 184 157 54 75 56 105 90 104 51 53 70 102 113 52 50 122 387 188 214
internal_value=0 0.14595 0.196525 0.85994 0.116915 -0.199429 0.284091 -0.281986 0.469785 0.810739 0.187737 0.0283448 0.452476 -0.0311457 0.506682 0.355705 0.13914 0.522166 0.993028 -0.0942263 -0.0817063 0.399516 1.10656 1.34094 1.09019 -0.0634638 0.0280843 0.143794 -0.253235
internal_count=5501 2639 2444 273 2171 2862 1364 807 872 357 515 1152 331 185 110 212 374 247 107 157 492 172 266 215 163 1068 911 789 402
shrinkage=0.05


Tree=28
num_leaves=30
num_cat=0
split_feature=1 26 32 74 66 112 77 48 96 37 1 72 65 142 8 139 134 88 22 99 8 61 42 60 86 110 28 26 137
split_gain=13.2976 14.3198 11.2518 11.1323 10.948 11.7583 10.7009 9.95622 11.0461 9.80514 10.8835 10.0775 9.75498 10.4395 10.3503 9.7484 9.57513 8.96787 10.6339 8.34985 8.29888 8.24276 8.22251 7.64682 8.06748 16.769 7.43904 7.36235 7.3183
threshold=70.500000000000014 -1.8622785145719252 772955.06371910695 -0.2976134224464983 321955.77548128954 3271426.9321328984 15411.000000000002 1.134508152211521 0.021106647948470589 -1.182603445935303 59.500000000000007 -0.084538157553091325 5209.5000000000009 5882113603722.5264 502901.1633567047 3025.274279426942 3.4361011965855943 4581948.6758518787 25041336513.713875 5082.8023715415029 835073.29146926559 -1.2211759324403149 518970.4519826973 -0.049662218425689166 -0.49100349512327351 -0.71855980877319559 403228.15662577137 -1.9842237226678741 7992.0000000000009
decision_type=2 2 2 2 2 10 10 2 10 2 2 2 2 10 2 8 8 10 2 10 2 2 2 2 8 10 2 2 8
left_child=1 9 3 6 5 -3 16 8 15 10 -1 -12 -7 14 22 -4 28 -6 -19 -10 -5 -11 -14 24 25 -20 -15 -23 -2
right_child=2 4 7 20 17 12 -8 -9 19 21 11 -13 13 26 -16 -17 -18 18 23 -21 -22 27 -24 -25 -26 -27 -28 -29 -30
leaf_value=-0.01863488477032163 0.0050232836732131041 -0.035932974997381982 0.051355597310844991 -0.026741380845271348 -0.039092316514638167 -0.035642924915720971 -0.056238668134674458 -0.053837409839021688 0.020378623450867564 0.059727075844700162 -0.026304942038380554 0.038248992418971603 0.052044222029063704 0.029215573968754772 0.086406044987126118 -0.022777191779089233 0.070668506319636143 0.056047902741684918 -0.0300382518045843 0.08779949625807805 0.033952916949185355 0.059172790065495445 -0.033672771141632821 -0.038393816262035113 -0.022551662325902343 0.087828666091287033 -0.050623476959568904 -0.002327160518493404 0.041831497518489087
leaf_count=552 656 197 70 516 913 98 64 51 51 111 76 155 68 50 88 99 71 69 77 100 57 60 71 398 288 74 67 216 138
internal_value=0 -0.144406 0.194451 0.0671368 -0.328435 0.0382459 0.24347 0.656033 0.79483 0.121103 -0.0852156 0.394675 0.318767 0.552795 0.96988 0.22058 0.317425 -0.500923 -0.22974 1.29676 -0.353528 0.517216 0.327893 -0.361171 -0.0167414 0.611697 -0.2072 0.221031 0.230338
internal_count=5501 3628 1873 1502 2458 639 929 371 320 1170 783 231 442 344 227 169 865 1819 906 151 573 387 139 837 439 151 117 276 794
shrinkage=0.05


Tree=29
num_leaves=30
num_cat=0
split_feature=2 129 88 30 54 145 68 59 133 34 92 100 56 144 128 119 18 96 98 38 146 14 51 97 25 144 51 54 6
split_gain=12.5325 11.1787 10.4699 11.5616 15.0661 11.2252 11.2398 10.5555 10.539 9.33967 10.085 9.96971 11.1889 10.7051 9.26187 9.22755 8.95293 10.533 11.4945 9.49693 8.79018 8.33863 8.22773 7.70813 8.48526 7.66399 8.76943 7.30943 7.28518
threshold=1.0000000180025095e-35 13710417.678469682 913340.35494411259 362615.79925580858 596741.74743631738 -1.2422281470731209 69668.674678860276 -0.11844302803015065 -1.2219659378429959 57133065549.103279 567837.8914827574 4351120.8447850812 460703.91052684566 0.18729665681158311 1168575.5359765964 0.01048859900975393 3872221.9954994605 -2.5080744733132287 -1.0868545459235921 -1.6352904453521488 -1.8702398041956745 3.9787280841562476 5315.6217105263167 -1.2108457361717213 -1.1884919294220577 -0.059331740989988134 5107.7573529411775 116735.05791958791 751886.33786446752
decision_type=2 8 10 2 2 8 2 2 10 2 10 10 2 8 10 10 2 10 8 2 10 2 2 10 2 8 2 2 2
left_child=2 14 -1 4 5 8 15 -8 -4 21 -11 13 -13 22 -2 -7 17 -16 19 27 -14 -5 -12 -22 -25 -21 -27 -19 -24
right_child=1 -3 3 9 -6 6 7 -9 -10 10 11 12 20 -15 16 -17 -18 18 -20 25 23 -23 28 24 -26 26 -28 -29 -30
leaf_value=-0.024433406446958766 -0.031438805943663627 -0.023600505157243212 0.010420305859343316 -0.039635187978335755 0.065740601764804549 0.0084149647054620885 0.047146498988609203 -0.010334927643741002 0.08174107091127604 0.064216529964658764 -0.0063645488817067903 -0.027051753110627571 0.043211746196052683 -0.036611475193219681 0.076389557164839444 0.093811271988232692 -0.040143280459971932 -0.040410249082830946 -0.027105568909279173 0.0078584265307111156 -0.042807467833947364 0.022621874313894588 0.080482559762636297 0.052608029943613889 -0.030656321250587266 0.014307035224793206 0.085716058988920971 0.01694337180935844 0.020587562028362431
leaf_count=279 267 1300 88 302 124 65 72 555 77 91 78 486 101 64 77 50 129 81 273 135 107 97 114 67 70 64 85 122 81
internal_value=0 -0.207235 0.121417 0.180796 0.412271 0.271526 0.105139 -0.0536046 0.929027 -0.00884284 0.121502 0.0458201 -0.162453 0.490715 0.0105562 0.969799 0.146754 0.254271 0.149267 0.37773 0.240818 -0.503768 0.745846 -0.156504 0.351777 0.738715 1.16049 -0.103257 1.0778
internal_count=5501 2533 2968 2689 1031 907 742 627 165 1658 1259 1168 831 337 1233 115 966 837 760 487 345 399 273 244 137 284 149 203 195
shrinkage=0.05


Tree=30
num_leaves=30
num_cat=0
split_feature=86 21 2 107 111 97 17 88 114 45 102 76 83 84 20 96 26 76 53 86 25 57 83 114 42 85 59 25 49
split_gain=12.3864 10.7171 10.1849 10.4675 10.436 10.425 9.43996 10.7961 11.7551 9.31106 10.148 9.01149 8.78607 9.59627 17.7293 16.2376 11.6632 9.99468 8.75759 11.2552 7.95195 9.95337 10.01 8.67998 10.339 9.66659 7.1714 6.41462 6.09983
threshold=4.1817993948464336 8033390.9157894747 1.0000000180025095e-35 -0.022172888661834551 4817.5137254901974 -1.098690538313281 5971.0000000000009 15698832.062048277 6020941.626772753 91526958.073033109 12948776.13666909 1965916.0977982704 -0.010911107962005664 -0.083094288920673762 299669.67270345771 -0.033412616691499718 -1.9682927966394508 659625.25099459558 5072.5000000000009 -1.1544141332093958 -1.2586173919827626 34565917.053488381 -0.007441109277558376 9235085.919978274 993763.52259219473 -1.1561722476626741 0.073631031505507941 -1.2586173919827626 -1.2358972533275432
decision_type=8 2 2 10 10 10 2 8 10 2 10 10 10 10 2 10 2 10 2 8 2 2 10 10 2 8 2 2 2
left_child=1 -1 3 5 -4 28 7 8 11 10 20 18 -6 14 15 -14 -15 -16 26 -20 -8 23 -23 24 25 -22 -5 -19 -3
right_child=-2 2 4 6 12 -7 9 -9 -10 -11 -12 -13 13 16 17 -17 -18 27 19 -21 21 22 -24 -25 -26 -27 -28 -29 -30
leaf_value=0.052334386988467832 -0.019012722060605156 0.012180321069858002 0.041567981075235953 -0.039671899079484527 -0.027153218941302727 0.056722867727473092 0.087207470211483062 0.073264944352113781 -0.020494759951660859 -0.025473304385655361 -0.015081145487244206 -0.023091752251158747 0.11381311109297759 0.036243057398062918 0.054296216034237926 -0.015433063647555624 -0.02816317780766002 0.040785708975828852 0.023492690947953969 0.10020542114082132 -0.01013741446693988 0.010866036668708072 0.088879843934803804 -0.031020795651274354 0.074853671540383887 0.05817505150564594 0.033165035035390589 -0.027682983791951117 -0.026125396196398268
leaf_count=82 1136 140 92 66 750 52 61 56 439 88 117 105 81 79 69 50 529 54 105 55 151 59 101 82 66 54 52 298 432
internal_value=0 0.0590967 0.0323075 0.16375 -0.164164 -0.196777 0.286619 0.0662278 -0.0172612 0.529661 0.63657 0.325984 -0.230474 -0.0408352 0.305001 1.40728 -0.341621 -0.0698105 0.571762 0.9616 0.778902 0.654031 1.25946 0.372635 0.591753 0.242272 -0.0615277 -0.339841 -0.327154
internal_count=5501 4365 4283 2281 2002 624 1657 878 822 779 691 383 1910 1160 552 131 608 421 278 160 574 513 160 353 271 205 118 352 572
shrinkage=0.05


Tree=31
num_leaves=30
num_cat=0
split_feature=78 2 88 104 76 8 131 37 112 129 30 110 88 25 84 41 141 95 62 109 47 23 143 4 95 50 44 19 124
split_gain=11.657 11.4829 10.9934 11.8555 14.0774 11.2715 10.7069 11.6239 10.7981 9.38748 9.34293 10.2872 10.1091 9.60157 8.4669 9.82812 9.06443 7.83136 7.54732 8.39287 7.34966 10.7826 7.15348 7.09059 6.74203 6.74009 6.59341 7.27602 6.14806
threshold=32038.578849699206 1.0000000180025095e-35 962808.40289891302 562709.00710588659 1091410.72787034 101418.4163510331 0.16493090727899343 -1.3183770283113885 5868950.977174365 13710417.678469682 149089.2909785035 -1.8886420088182907 2908550.9318593591 -1.1905138968639759 -0.18657611096447804 6034.5000000000009 8559554.2080200519 -0.0078916237113265987 3.1028011671472169 -1.1920678278948535 0.017071176607469016 -0.0014553472679496016 0.019857735045435834 1254101.6193505402 0.0077380219055172761 -1.9473120761637024 241882.11946434589 2897.147647929602 5226556.4856344732
decision_type=8 2 10 10 8 2 10 2 10 8 2 10 10 2 8 2 10 10 2 8 2 2 8 2 10 2 2 2 10
left_child=20 2 -2 4 -4 -5 7 -7 10 14 12 13 -9 17 15 16 -3 -12 19 22 21 -1 26 -18 -25 -16 -10 -28 -13
right_child=1 9 3 5 -6 6 -8 8 18 -11 11 28 -14 -15 25 -17 23 -19 -20 -21 -22 -23 -24 24 -26 -27 27 -29 -30
leaf_value=0.043720035601845814 -0.02768491375163272 0.052068906226330973 0.11502901309511954 -0.030162679147797453 0.014295291538447328 0.058278076346462253 0.06439570804583418 0.0064609213773081479 0.072338740804485477 -0.025050227372353375 -0.049231112011185976 -0.03666638597909138 0.073050187662486027 0.0659211579311684 0.01159193212671744 0.077788610625337262 -0.020854497545093047 0.026702214991396772 -0.033477542487621997 -0.023800216394709084 0.058278032967519371 -0.038090695993182024 -0.012371226076460682 -0.0074278461495439711 0.06814317523963026 -0.029203900288236329 0.05996017622841622 0.0042437392997478028 0.029433951719819336
leaf_count=53 289 85 53 298 107 85 72 82 65 1264 50 196 93 66 130 69 345 87 309 305 73 50 272 75 60 430 51 331 56
internal_value=0 -0.0501913 0.0793709 0.143294 1.0001 0.0872158 0.157704 0.112622 0.0579914 -0.24688 0.376898 0.111294 0.89131 0.53408 -0.0404457 0.245951 0.097268 0.0499321 -0.118259 -0.00761311 0.601247 0.156001 0.166268 -0.114565 0.518565 -0.339854 0.396356 0.266372 -0.428224
internal_count=5501 5325 2867 2578 160 2418 2120 2048 1963 2458 630 455 175 203 1194 634 565 137 1333 1024 176 103 719 480 135 560 447 382 252
shrinkage=0.05


Tree=32
num_leaves=30
num_cat=0
split_feature=1 97 97 23 110 86 40 14 35 26 109 45 145 138 121 36 72 1 27 90 42 76 80 46 42 120 46 138 25
split_gain=11.3981 9.52857 15.2713 12.36 11.9745 9.74659 9.32822 9.01685 8.2571 8.59138 8.1333 7.81523 7.73738 7.45859 6.81015 7.19457 10.7129 6.72895 7.11792 6.684 9.12651 9.60247 7.6281 10.1715 6.43045 6.33997 14.3966 6.24717 6.06558
threshold=64.500000000000014 -1.2182196089966437 -1.1998154399850911 -0.036908361859493602 -1.1100101608903501 -1.8893037688057002 801219.51340161019 -1.8028682480476277 -0.10589099249607563 -1.8594003556622705 -1.2148503909282313 8681685.584962409 -1.2497566193029555 6294855.6890585599 -1.0797869751027358 -1.7388789617443801 -0.59629912057665291 26.500000000000004 5067.7090909090921 4997694.3407720253 528739.3592153393 1641589.8641140044 518041.86274565739 265065752566.18384 781622.34233837982 0.31075701337547906 359833411237.0777 69903.915858006148 -1.2332038720535274
decision_type=2 10 10 2 10 10 2 2 2 2 10 2 8 10 10 2 2 2 2 10 2 8 10 2 2 10 2 10 2
left_child=7 27 3 24 6 -5 8 11 -4 -10 -7 -1 -6 -8 15 16 -9 -13 -19 22 -21 -22 -20 -24 -3 -17 -27 -2 -12
right_child=1 2 4 5 12 10 13 14 9 -11 28 17 -14 -15 -16 25 -18 18 19 20 21 -23 23 -25 -26 26 -28 -29 -30
leaf_value=0.04383212151354976 0.029166695257661718 -0.038795854064110888 0.043161622044374855 -0.0019377005529319234 0.033225571078028392 0.081277663976993514 0.055793720798540669 -0.013164177034354059 0.018329025232716758 -0.033766626255302912 -0.010524550852892889 -0.043508849038277127 -0.034842084385454948 -0.0021792586688531668 0.046387661406569691 -0.03286672182813543 0.08746675860043307 -0.036126762267946769 -0.027311168571176964 0.074552386883631958 0.060247451237500374 -0.024914886177574383 0.05484551946871441 -0.0054062788588424629 0.022346158869475097 -0.029328171151012758 0.081820697723707925 -0.012601218655062238 0.044916465945122407
leaf_count=84 62 84 60 94 59 110 118 209 100 209 56 157 407 83 52 1192 50 122 219 67 50 108 95 250 79 157 50 831 287
internal_value=0 0.128492 0.257846 0.57938 -0.00532882 0.781579 0.240713 -0.182055 -0.0507302 -0.269689 0.967148 0.0237252 -0.495726 0.72503 -0.386946 -0.435282 0.215683 -0.062151 0.0237544 0.132601 0.601477 0.129862 -0.0538109 0.229292 -0.173155 -0.542208 0.0780834 -0.150326 0.73053
internal_count=5501 2639 1746 710 1036 547 570 2862 369 309 453 1152 466 201 1710 1658 259 1068 911 789 225 158 564 345 163 1399 207 893 343
shrinkage=0.05


Tree=33
num_leaves=30
num_cat=0
split_feature=86 54 110 97 86 24 139 48 136 120 145 88 51 63 25 10 13 83 124 91 102 79 144 72 59 96 60 27 54
split_gain=10.9197 9.92426 10.5386 9.55328 8.79327 10.7246 8.49549 8.09016 7.93275 10.3429 9.86993 13.1559 9.16077 9.81052 7.71957 7.64826 7.51609 7.49672 9.70684 7.16952 6.9164 6.77668 6.68442 6.39582 6.40197 7.24995 7.1737 7.1844 6.0785
threshold=4.1817993948464336 1238146.3706185201 -1.3967827198896274 -1.1313244848746502 2.7283563205673174 -0.22203100687409993 2956.168796358023 0.053301130663492229 3087073.3128547645 -2.738332738892125 -1.2448555055437482 5188535.8299260093 5229.3937621832365 5391.9911111111123 -1.2423002102317906 2821830088.3474684 -1.2793695564844259 0.081542313509680844 2847782.2955857744 2889.3122690894652 8170927.878920122 2929.9749485847406 -0.36290603584114739 -0.102501832698511 -0.041668494091789653 0.37053549576087541 0.33950298192790768 5962.8976982097201 107366.14773134777
decision_type=8 2 10 10 10 2 10 2 8 8 10 10 2 2 2 2 2 10 10 10 8 10 10 2 2 8 2 2 2
left_child=1 2 4 6 5 -1 21 14 10 20 11 -4 -12 -14 -8 -7 -17 19 -19 -18 -10 -3 -16 -21 26 28 27 -25 -26
right_child=-2 3 8 -5 -6 15 7 -9 9 -11 12 -13 13 -15 22 16 17 18 -20 23 -22 -23 -24 24 25 -27 -28 -29 -30
leaf_value=-0.01363353255962893 -0.018123774874910053 0.02712209923049998 -0.006952119588514636 -0.046313448781934996 0.056464511548904452 -0.056187750478139946 0.052558991966335261 0.065776310066320329 0.071885597441450302 -0.034090603914225935 -0.04179897660402105 0.10197030840975763 0.074880065315810804 -0.0056416133502662251 0.018976586038375869 0.04527237250094579 0.037209119866942385 -0.018672047361281526 0.057199499628882405 -0.025398019905452915 -0.019312251303993697 0.096509408904100952 -0.037803503989854548 0.0091951653883023312 -0.026308896862374753 0.04872371078149406 -0.0088893249091605443 0.073253080673378435 0.0072411973611496167
leaf_count=694 1136 62 86 55 85 51 59 55 51 794 211 50 50 376 109 115 95 51 115 220 61 55 122 59 242 52 82 76 232
internal_value=0 0.0547291 -0.00597857 0.461377 0.115785 0.0787752 0.593207 0.320016 -0.25341 -0.511193 0.0133356 0.855535 -0.193358 0.119766 0.0782252 0.213698 0.248688 0.176829 0.726693 0.0818569 0.522042 1.24531 -0.21515 -0.0065698 0.111545 -0.0714984 0.511682 0.890926 -0.187068
internal_count=5501 4365 3848 517 2169 2084 462 345 1679 906 773 136 637 426 290 1390 1339 1224 166 1058 112 117 231 963 743 526 217 135 474
shrinkage=0.05


Tree=34
num_leaves=30
num_cat=0
split_feature=1 26 32 143 66 122 48 37 98 74 77 88 40 60 1 78 54 136 134 132 144 89 8 6 61 126 92 137 12
split_gain=10.4637 11.2874 9.46818 9.33861 8.76179 13.5732 9.58328 8.5465 9.92153 8.39658 9.05244 8.37871 12.7543 13.1379 8.3731 8.27492 10.7794 8.49819 7.69257 7.50668 8.04397 8.67167 7.15945 6.49843 6.45602 11.3102 6.12472 5.88554 8.32816
threshold=70.500000000000014 -1.8622785145719252 772955.06371910695 0.027980450711325908 307083.8182378874 5.8841555261284757 0.39355482122833702 -1.182603445935303 -1.4339665699792929 -0.2976134224464983 15411.000000000002 4867658.4123875657 2138573.952538453 -0.19555868147058061 59.500000000000007 1330486.0340289932 1095146.6233426502 4158274.244694998 3.4361011965855943 -0.056797040880727324 0.002146942570064096 5605.0000000000009 835073.29146926559 862509.4518796209 -1.2206825521848621 792724.82677383616 4141244.8628916512 7992.0000000000009 0.012253356277206485
decision_type=2 2 2 8 2 8 2 2 10 2 10 10 2 2 2 10 2 10 10 10 10 10 2 2 2 10 8 8 2
left_child=1 7 9 4 5 6 -3 8 14 10 18 -6 -13 -14 -1 17 -17 -4 27 -9 -21 -22 26 -16 -23 -26 -11 -2 -29
right_child=2 3 15 -5 11 -7 -8 19 -10 22 -12 12 13 -15 23 16 -18 -19 -20 20 21 24 -24 -25 25 -27 -28 28 -30
leaf_value=-0.010793966343446544 0.0035814676893456024 -0.010277685717350084 0.076378278177152759 -0.032278467620805197 -0.032730873050668637 0.099089701067266472 0.06155689920199147 0.06579996569779388 -0.039772662580876368 -0.033788976588707831 -0.055745957303825401 -0.01410405033678289 0.12158217783616071 -0.011131153464750264 0.0081329951603328603 -0.028915037819681501 0.044081750049994116 0.011612075672059437 0.061407544563899741 -0.036074236114343329 -0.016809609392180309 0.087622984545270705 0.031161339411949068 0.061516122935474253 -0.020451066420585057 0.07632382185791331 0.0241748708950042 0.065106020003581608 -0.0069105655900993899
leaf_count=383 656 303 88 804 660 50 53 66 223 455 64 465 56 67 126 122 82 79 71 74 72 50 57 51 73 52 61 82 56
internal_value=0 -0.131475 0.171617 -0.300461 -0.137011 0.27057 0.0495823 0.102997 -0.0925441 0.0532661 0.203928 -0.328352 0.00753337 1.17645 0.088899 0.59315 0.134912 1.02721 0.268802 0.469301 0.255795 0.503964 -0.322828 0.533203 0.894184 0.477653 -0.501373 0.189283 0.726471
internal_count=5501 3628 1873 2458 1654 406 356 1170 783 1502 929 1248 588 123 560 371 204 167 865 387 321 247 573 177 175 125 516 794 138
shrinkage=0.05


Tree=35
num_leaves=30
num_cat=0
split_feature=86 21 107 54 59 28 112 50 13 16 92 97 106 20 138 133 85 135 136 8 121 59 61 81 143 86 47 80 26
split_gain=9.67209 8.62664 7.7779 8.57346 11.638 8.47485 10.4813 8.34264 8.75221 8.89407 9.27148 8.5432 9.34705 8.16555 8.09498 8.02858 7.9929 9.02288 7.6727 9.12726 9.11758 7.85822 9.45015 7.56547 10.111 9.60306 7.43098 7.52577 6.89765
threshold=4.1817993948464336 8033390.9157894747 -0.022804058963473182 1293750.3486289461 -0.0004996984147765494 286523.37935048586 1605366.959381846 -0.55114657168678727 -1.1695294894372252 1144964.2193390729 4522265.0992013114 -1.2171391694715921 382611445237.74762 443685.34553771437 4271703.6597673288 -1.2091698091721328 -1.0660333913850346 5057.4607407407411 2454112.0149262706 163169.4108232033 -1.1998065140180463 -0.024809622270821823 -1.203568350675315 12833772.482501047 0.021083550370723913 -1.7198570838873968 -0.00242534883366988 273478.36001891008 -1.8650942471686227
decision_type=8 2 10 2 2 2 10 2 2 2 10 10 10 2 10 10 8 10 8 2 10 2 2 10 10 10 2 10 2
left_child=1 -1 18 5 -5 16 -7 8 11 13 15 -8 -13 -10 -6 -11 17 -4 19 -3 21 -21 -23 25 -25 -19 27 -14 -20
right_child=-2 2 3 4 14 6 7 -9 9 10 -12 12 26 -15 -16 -17 -18 23 28 20 -22 22 -24 24 -26 -27 -28 -29 -30
leaf_value=0.046294398827439798 -0.017281491783448354 -0.039382663341025678 -0.020302345500126356 0.059208624772254415 0.031029108686092845 -0.055805239378158802 -0.02966777774536172 -0.023616573285374001 0.038562538672695011 0.1238107218075884 0.0063394767661127524 0.072699178798702788 -0.038325014099762827 -0.036083188642998913 -0.032507506567998397 0.036390306917743739 0.065478530566480439 0.0048419548898026299 0.0034153361510280188 -0.00061410970195919807 -0.01803003309946944 0.021582606778433943 0.10548107185355914 0.022178156449821212 -0.027474094927765848 0.06831566586832892 -0.017686326288471603 0.033303758364608603 -0.035321641224165291
leaf_count=82 1136 140 186 144 101 130 272 551 50 50 65 56 50 78 111 63 52 86 146 91 131 76 55 311 176 121 281 187 523
internal_value=0 0.0507456 0.0261063 0.108624 0.559958 0.043176 -0.101912 -0.0354723 0.0953393 0.534854 1.01634 -0.0819083 0.12673 -0.0372687 0.0527379 1.61084 0.273607 0.194827 -0.216128 0.0902291 0.322552 0.699697 1.18378 0.359804 0.126461 0.813822 0.00288563 0.403504 -0.469433
internal_count=5501 4365 4283 3121 356 2765 1833 1703 1152 306 178 846 574 128 212 113 932 880 1162 493 353 222 131 694 487 207 518 237 669
shrinkage=0.05


Tree=36
num_leaves=30
num_cat=0
split_feature=1 26 88 104 18 32 50 144 78 18 37 98 11 70 59 13 136 68 38 74 24 74 128 109 97 49 47 35 10
split_gain=9.49916 9.90882 8.8221 10.8108 8.75035 8.16788 7.84429 9.88957 9.54864 7.849 7.54354 9.04393 7.63943 7.46283 11.4059 7.43526 7.12909 8.28478 6.56928 8.60561 7.49899 7.70326 7.12743 7.09029 6.53575 8.47134 8.97686 10.3678 6.36639
threshold=70.500000000000014 -1.8622785145719252 4703554.3914448097 562709.00710588659 210683.87726132141 772955.06371910695 4.9231727499897096 -0.73232674061614011 549352.72354531917 1094951.0449145494 -1.182603445935303 -1.4339665699792929 -0.04661154065290337 9547175453.5262299 -0.041668494091789653 -1.3131627446711802 2886189.7676064526 1086113.5761082091 -1.101786204813372 -1.5674856755863946 -2.5004210284856163 -0.32189425494378304 1077791.8563602429 -1.2227175385141116 -1.2291434348044465 -1.1604203531205 -0.00043105057522535762 0.01692263887580207 109996462094.19112
decision_type=2 2 10 10 2 2 2 10 10 2 2 10 2 2 2 2 10 2 2 2 2 2 10 10 10 2 2 2 2
left_child=1 10 13 -4 -5 15 7 -7 -9 -10 11 12 -1 14 -3 -2 -14 -18 19 -17 -20 22 -22 -21 -12 26 -26 -28 -24
right_child=5 2 3 4 -6 6 -8 8 9 -11 24 -13 16 -15 -16 18 17 -19 20 23 21 -23 28 -25 25 -27 27 -29 -30
leaf_value=0.042649279082091575 0.045833539917591953 0.061741596801946054 0.060615629801399229 0.044510317565467944 -0.01366918813921237 0.079620019650731066 -0.044126918148563447 0.057344859263246853 -0.038328410848683554 0.027183269648548832 0.063482122195634885 -0.038965766925895047 -0.018974024809056817 -0.033481517595162172 -0.021017503470097679 -0.0046966002912095864 0.037508977698725687 -0.037321477907334359 0.041197803783806698 -0.0021698870593238151 0.047311500300811896 -0.036118528528755738 -0.045515060203151325 0.04814605555287315 0.050985379031386363 -0.044349906884086882 -0.050758050371661534 0.034473196648319229 0.006656543754277074
leaf_count=84 80 62 89 64 959 77 53 67 79 95 68 223 318 1061 223 323 105 53 80 99 64 428 117 167 131 51 71 66 144
internal_value=0 -0.12652 -0.287075 -0.0348379 -0.150644 0.163069 0.552362 0.682658 0.400001 -0.0356485 0.0923658 -0.0930562 0.0774661 -0.502111 0.00528376 0.0522518 -0.0816649 0.384369 -0.00611055 0.202657 -0.234031 -0.341416 -0.00395912 0.605319 0.433363 0.24738 0.464588 -0.0958297 -0.240014
internal_count=5501 3628 2458 1112 1023 1873 371 318 241 174 1170 783 560 1346 285 1502 476 158 1422 589 833 753 325 266 387 319 268 137 261
shrinkage=0.05


Tree=37
num_leaves=30
num_cat=0
split_feature=78 47 60 47 119 1 53 28 124 136 143 128 4 11 35 96 85 49 83 130 95 1 13 72 66 23 144 30 92
split_gain=9.15381 11.4848 10.8014 9.09143 9.2393 13.1864 11.4289 9.43202 10.2951 11.6561 9.02855 8.69076 8.04119 7.70477 7.95697 7.65726 7.43224 7.23147 8.46578 7.901 6.90057 6.70757 7.51437 8.00887 6.63668 7.66113 9.76084 6.41176 6.2852
threshold=57152.398933972683 0.017071176607469016 0.33950298192790768 0.026370370822477326 -0.0086667010510136262 36.500000000000007 5259.5000000000009 126278.76975058745 1498245.3641955601 1180159.7975004676 -0.084834549218456221 4128757.6929947888 700509.56618159113 0.069504737223829952 -0.0039207319812084611 -0.066603401068205823 -1.2125084096088441 -1.207982117052697 -0.0023525485238029514 80579170107026.969 0.0090972095866696748 64.500000000000014 -1.2054837780335232 -0.27003665468047761 3612406.3920664811 -0.014488793240940085 -0.40446953551914194 2156381.7789956289 2194671.5256566531
decision_type=8 2 2 2 10 2 2 2 10 10 8 10 2 2 2 10 10 2 10 10 8 2 2 2 2 2 10 2 10
left_child=1 -1 3 4 24 -6 11 15 -9 -10 16 27 -13 -4 -15 -8 -5 18 28 21 -20 -19 -23 -24 25 -2 -27 -7 -11
right_child=2 -3 13 10 5 6 7 8 9 17 -12 12 -14 14 -16 -17 -18 19 20 -21 -22 22 23 -25 -26 26 -28 -29 -30
